{"params": {"Dense_0": {"bias": [-0.17463572323322296, 0.03793507069349289, 0.34331512451171875, -0.27767667174339294, 0.19196434319019318, 0.14010457694530487, -0.11678829789161682, 0.15982621908187866, 0.26014259457588196, 0.34279686212539673, -0.1173403337597847, 0.2026708424091339, 0.1204824447631836, -0.06245384365320206, -0.19020196795463562, -0.26016169786453247, 0.12439874559640884, 0.8166977763175964, 0.18235871195793152, -0.25549402832984924, 0.3567778468132019, 0.03744002804160118, -0.618996798992157, 0.33817216753959656, -0.334017276763916, 0.17750336229801178, -0.26366403698921204, -0.07525007426738739, -0.264567106962204, -0.2711571156978607, -0.03829401731491089, 0.19971545040607452, -0.3220658302307129, 0.3815537095069885, -0.0613609254360199, -0.012665510177612305, -0.02924170345067978, 0.31971004605293274, 0.17996610701084137, -0.4976598918437958, -0.05647788196802139, -0.3877306580543518, 0.11824159324169159, -0.2866227626800537, 0.1423383355140686, 0.037528637796640396, 0.08259673416614532, -0.029727241024374962], "kernel": [[-0.08552823215723038, -0.49352890253067017, -0.451249361038208, -0.01161767728626728, 0.025713646784424782, 0.8104889392852783, -0.111485555768013, 0.35640624165534973, 0.17481644451618195, 0.0705084279179573, 0.45471054315567017, 0.5225554704666138, 3.286582068540156e-05, -0.40772745013237, -0.03501667454838753, 0.07065227627754211, -0.12339949607849121, -0.33684369921684265, 0.43266862630844116, 0.5044576525688171, 0.12479803711175919, 0.13700145483016968, -0.07678452134132385, -0.1539146900177002, 0.5458897948265076, -0.1767120510339737, 0.22440338134765625, 0.08152535557746887, -0.4844192564487457, 0.4685315489768982, -0.14879098534584045, -0.2771778106689453, -0.31322771310806274, -0.20934168994426727, -0.545760989189148, 0.3851125240325928, -0.41216638684272766, -0.29704877734184265, -0.3392500877380371, 0.3345889151096344, -0.32661378383636475, -0.09777212142944336, 0.2115371972322464, -0.6744486093521118, -0.07946350425481796, -0.01624702289700508, -0.09983877092599869, 0.05579913407564163], [-0.511277437210083, -0.4632309377193451, 0.013607840053737164, 0.0944160744547844, 0.30687186121940613, -0.21558748185634613, -0.1547006070613861, -0.12963202595710754, -0.08216002583503723, -0.11860176920890808, 0.010015839710831642, 0.07637427747249603, 0.5644013285636902, -0.3218582570552826, 0.05952071398496628, 0.03597795590758324, 0.01008504070341587, -0.16168951988220215, 0.1767958104610443, 0.09965512901544571, 0.3308866322040558, 0.42163363099098206, -0.476101279258728, -0.3202158510684967, -0.5304553508758545, -0.07619285583496094, 0.10091888159513474, 0.027344118803739548, 0.05068829655647278, -0.006282019894570112, -0.30688685178756714, 0.25423499941825867, 0.1030462235212326, 0.20133675634860992, 0.27491480112075806, -0.3315401077270508, -0.4657517671585083, 0.1326717585325241, 0.30624493956565857, -0.024407343938946724, -0.26902875304222107, 0.7805347442626953, -0.2269877791404724, 0.38612478971481323, 0.5666454434394836, 0.30439072847366333, -0.0774550661444664, 0.302747517824173], [-0.22784419357776642, -0.6495281457901001, -0.025404423475265503, -0.1899041384458542, -0.46399664878845215, -0.31742531061172485, -0.020042669028043747, 0.3619541823863983, -0.5537665486335754, -0.15588907897472382, 0.051395315676927567, -0.017405347898602486, -0.2978445589542389, -0.20547805726528168, 0.1614023894071579, -0.366075724363327, -0.21032774448394775, 0.2526802122592926, -0.07020203769207001, -0.0840454027056694, 0.06860940158367157, 0.365466445684433, -0.1537766009569168, -0.006216369569301605, 0.5975258946418762, -0.022828826680779457, -0.24768519401550293, 0.1739489585161209, -0.14842882752418518, -0.08628357946872711, -0.2813171148300171, 0.011145020835101604, 0.025205904617905617, -0.628921627998352, -0.09223923832178116, 0.05231274291872978, 0.05427344888448715, 0.5512639880180359, 0.6368606090545654, -0.14144231379032135, -0.25763553380966187, 0.35740816593170166, -0.17686116695404053, -0.25477129220962524, -0.10570935904979706, 0.16569174826145172, -0.24467456340789795, 0.3539719879627228], [0.09507184475660324, 0.046744201332330704, 0.2191523313522339, -0.2778017222881317, -0.32633739709854126, -0.22187212109565735, -0.4081040322780609, 0.5307177901268005, 0.008385991677641869, 0.5169472098350525, 0.5172103643417358, 0.3194448947906494, 0.40990304946899414, -0.12822748720645905, 0.044326115399599075, 0.2884824275970459, -0.19216293096542358, 0.15353114902973175, 0.21055851876735687, 0.23568785190582275, -0.17314065992832184, 0.05054359883069992, 0.19301019608974457, -0.08395862579345703, -0.42877137660980225, 0.16533991694450378, 0.15251073241233826, 0.22767005860805511, -0.39927273988723755, -0.23215004801750183, 0.1805397868156433, 0.3981131315231323, 0.06403100490570068, 0.07575343549251556, 0.3978574573993683, 0.157517671585083, -0.550050675868988, 0.25584477186203003, -0.0602492019534111, 0.5584694743156433, -0.2758901119232178, -0.23787140846252441, -0.0322578102350235, -0.15953905880451202, 0.022601431235671043, 0.1460074931383133, 0.19952842593193054, -0.44810399413108826], [-0.3554011285305023, 0.21891717612743378, 0.13891750574111938, -0.25855836272239685, 0.29968035221099854, 0.005698440130800009, 0.20996272563934326, -0.45963048934936523, 0.090754933655262, -0.2264697104692459, 0.10379046946763992, -0.0898798257112503, -0.15350553393363953, 0.5157409906387329, -0.32852089405059814, -0.19229267537593842, -0.28771546483039856, 0.052054326981306076, 0.023319093510508537, 0.18387249112129211, -0.6715143918991089, -0.1679198294878006, 0.6240483522415161, -0.970126211643219, -0.35552486777305603, 0.04998273402452469, -0.16143880784511566, -0.37684327363967896, 0.3464709222316742, -0.6075353026390076, 0.5538560748100281, -0.605323076248169, -0.19098907709121704, -0.4018218219280243, 0.08966981619596481, -0.13996073603630066, 0.3498607277870178, -0.3696582019329071, 0.044927842915058136, -0.0015201999340206385, 0.0018422775901854038, 0.1719341278076172, -0.08426204323768616, -0.009428502060472965, 0.478877991437912, -0.13253997266292572, -0.1763538122177124, -0.018977617844939232], [0.0670003592967987, -0.0500742644071579, 0.14087513089179993, 0.23265612125396729, 0.29115259647369385, 0.3471156358718872, -0.43529579043388367, 0.04874284937977791, -0.20333819091320038, 0.06135014072060585, -0.002562666544690728, -0.4085168242454529, -0.21574166417121887, -0.32251647114753723, 0.17424555122852325, -0.01797466352581978, -0.2039092630147934, 0.08904378116130829, -0.056298863142728806, 0.2371341735124588, 0.2105884850025177, 0.155835822224617, 0.007456628605723381, 0.3483712375164032, 0.18941690027713776, -0.04996813088655472, 0.6298999190330505, 0.056255973875522614, -0.5349133014678955, 0.3251352608203888, 0.07179269194602966, -0.3492830991744995, 0.34967806935310364, 0.16145668923854828, -0.1847301870584488, 0.12717603147029877, 0.3366585671901703, 0.4628160893917084, -0.372506320476532, -0.195638969540596, -0.15761572122573853, 0.3455360233783722, -0.2999303936958313, 0.03834014758467674, -0.08768368512392044, -0.4177657961845398, 0.15821725130081177, 0.5429200530052185], [-0.29044848680496216, 0.1642368584871292, -0.41238465905189514, 0.23529477417469025, -0.10686327517032623, 0.07452588528394699, -0.12353392690420151, 0.313056081533432, -0.3362591564655304, 0.6042866110801697, 0.06933671981096268, 0.7064976692199707, -0.055112216621637344, -0.07111373543739319, -0.21094660460948944, -0.25047242641448975, -0.25909659266471863, -0.04606108367443085, -0.1397799849510193, -0.24280999600887299, -0.11021169275045395, 0.4342239499092102, 0.14112620055675507, -0.3559049665927887, -0.1683511734008789, -0.6295989751815796, -0.24225586652755737, -0.33580711483955383, -0.2674373388290405, 0.03306514024734497, -0.12036781758069992, 0.20962411165237427, 0.09466441720724106, -0.40186506509780884, -0.3408200740814209, 0.015936344861984253, -0.17884910106658936, 0.25976598262786865, -0.01108710840344429, 0.10356853902339935, 0.09382809698581696, -0.33562996983528137, 0.3007911443710327, -0.5355969667434692, -0.4511158764362335, 0.13363535702228546, -0.5202421545982361, 0.028750358149409294], [0.02785656973719597, -0.05183550342917442, 0.2672185003757477, 0.43815916776657104, 0.15559689700603485, 0.20621289312839508, -0.3832719326019287, 0.39773958921432495, -0.5512307286262512, -0.15002897381782532, -0.04493177682161331, -0.13985575735569, 0.012244717217981815, -0.02324642241001129, -0.0634411871433258, 0.03360912576317787, 0.19904522597789764, -0.1639767736196518, 0.2244984656572342, 0.44875368475914, 0.17334501445293427, 0.08070863038301468, 0.23780426383018494, 0.20953339338302612, 0.2152419239282608, 0.267990380525589, 0.14163927733898163, -0.05285351350903511, -0.19815440475940704, 0.07195456326007843, -0.39571964740753174, -0.08669914305210114, 0.18599122762680054, 0.018995946273207664, 0.15196402370929718, -0.20444434881210327, -0.19044139981269836, -0.31640249490737915, -0.028389189392328262, 0.5783814787864685, 0.3183337450027466, -0.3799307942390442, -0.1686660647392273, -0.23739655315876007, -0.6329454779624939, -0.2741967439651489, -0.4000411927700043, 0.2584238052368164], [0.1997937709093094, 0.04393365979194641, -0.04286756366491318, -0.2131572663784027, 0.2796659767627716, -0.2573740780353546, 0.4171657860279083, -0.016844354569911957, -0.5965986847877502, -0.1067400798201561, 0.2539633810520172, -0.15469565987586975, -0.41872814297676086, -0.05066557601094246, 0.08472219854593277, -0.21038882434368134, 0.11360616236925125, -0.2712790369987488, -0.2844823896884918, 0.04148274287581444, -0.13586270809173584, 0.2419665902853012, 0.3265726566314697, 0.22337237000465393, 0.05013599246740341, 0.10309739410877228, 0.24976426362991333, -0.22429326176643372, 0.24266964197158813, 0.5314807891845703, 0.15204724669456482, 0.09690413624048233, 0.13280607759952545, 0.22144846618175507, -0.02386314794421196, -0.007529877591878176, 0.13275179266929626, -0.04779605567455292, 0.3208521902561188, -0.45959505438804626, 0.0013469723053276539, -0.5694542527198792, 0.3793216645717621, -0.09791138023138046, -0.7247700095176697, -0.19082486629486084, 0.4862210154533386, -0.09518930315971375], [0.06340445578098297, 0.09696808457374573, 0.1302255094051361, 0.06265795975923538, -0.024476302787661552, -0.24700908362865448, 0.2556299865245819, 0.05876767262816429, 0.20709511637687683, -0.1690921187400818, 0.2266719937324524, 0.5120306611061096, -0.316444993019104, -0.32023096084594727, -0.1989591270685196, -0.28435441851615906, 0.1248265951871872, 0.04925995692610741, 0.18581512570381165, -0.265507310628891, 0.2561618387699127, 0.012260288931429386, -0.14994646608829498, -0.45133787393569946, -0.5404952168464661, 0.4259505569934845, 0.19474159181118011, 0.3185061514377594, -0.40866270661354065, 0.22777125239372253, 0.10789491981267929, 0.038966722786426544, 0.2728044390678406, -0.22665730118751526, -0.2859955132007599, 0.004322685766965151, -0.19744059443473816, -0.5249732732772827, -0.00620614318177104, -0.4854534864425659, 0.40199410915374756, -0.02409563586115837, -0.23858565092086792, -0.2014112025499344, -0.4139333665370941, 0.6099454164505005, 0.00541749456897378, -0.21492303907871246], [-0.035568661987781525, -0.23191557824611664, -0.25202521681785583, -0.033249933272600174, 0.21613983809947968, 0.06755584478378296, 0.415704607963562, -0.24117043614387512, 0.09356710314750671, -0.17722547054290771, 0.4899483621120453, -0.1313856840133667, 0.13080322742462158, -0.09370457381010056, -0.12454461306333542, -0.135793074965477, -0.2729879915714264, 0.34836262464523315, 0.07588391751050949, -0.09779158979654312, -0.07196541875600815, 0.14941903948783875, -0.4349703788757324, 0.2716811001300812, 0.03895215317606926, 0.06927477568387985, -0.07456088811159134, -0.07699325680732727, -0.2460329681634903, -0.26807788014411926, -0.005617670249193907, 0.41704630851745605, -0.23914901912212372, -0.343747615814209, 0.00947524793446064, 0.09372148662805557, 0.13273188471794128, 0.06374488025903702, -0.07197512686252594, 0.2766741216182709, -0.3854489326477051, -0.3201877176761627, -0.5087197422981262, 0.020945176482200623, 0.037369005382061005, 0.19425643980503082, -0.5887432098388672, 0.28201133012771606], [-0.050684161484241486, 0.3702046275138855, -0.36926987767219543, 0.5537895560264587, 0.3534090518951416, -0.047859709709882736, -0.17761768400669098, 0.09998460859060287, -0.06851282715797424, -0.47956544160842896, 0.07851480692625046, 0.1994454562664032, -0.15987849235534668, -0.16101449728012085, 0.2406047135591507, -0.5330265760421753, 0.4591740071773529, -0.41625693440437317, -0.36128243803977966, -0.3557148873806, -0.21635892987251282, -0.007280525751411915, 0.08642256259918213, 0.2824866771697998, -0.29348528385162354, -0.20354527235031128, -0.25090664625167847, -0.06068329140543938, 0.1978064775466919, -0.11719541996717453, 0.43071138858795166, 0.08599512279033661, 0.12851980328559875, -0.27770501375198364, -0.35924816131591797, 0.22536146640777588, 0.1949002891778946, 0.5670985579490662, 0.41205254197120667, -0.2072286605834961, 0.22826284170150757, 0.112640880048275, -0.5410391092300415, 0.03740750625729561, -0.21046322584152222, -0.3884677290916443, 0.04469544067978859, 0.026539910584688187], [0.05954761430621147, -0.2512625455856323, -0.28240394592285156, 0.272384375333786, -0.29894596338272095, -0.323498010635376, -0.3707782030105591, -0.13753573596477509, 0.1346537470817566, 0.17736956477165222, 0.24754595756530762, 0.3245631158351898, 0.3125450015068054, -0.023769529536366463, 0.5775163769721985, -0.092351533472538, 0.6822889447212219, -0.17783904075622559, -0.054256342351436615, 0.18657280504703522, -0.37535667419433594, -0.08988261967897415, -0.42873552441596985, 0.07804078608751297, -0.05012162774801254, 0.11905816197395325, 0.22186921536922455, -0.4653084874153137, -0.06586196273565292, 0.12071975320577621, 0.06413265317678452, -0.06678038090467453, -0.6445255279541016, -0.28398922085762024, 0.130504310131073, -0.07783303409814835, 0.09760438650846481, -0.021496405825018883, 0.17246118187904358, -0.2118852585554123, 0.1671893149614334, -0.8536613583564758, -0.12590864300727844, -0.6006048917770386, -0.042858295142650604, -0.10692156106233597, -0.05455522984266281, 0.11778692156076431], [-0.17991845309734344, 0.10533950477838516, -0.45638447999954224, -0.2722278833389282, -0.19780170917510986, -0.09193675965070724, 0.11352504044771194, -0.10345925390720367, 0.3333837687969208, 0.2177201211452484, -0.12700577080249786, -0.3979809582233429, 0.18621765077114105, 0.010233514942228794, 0.8426814675331116, 0.1422373354434967, -0.08467549830675125, -0.0036636521108448505, 0.05027269199490547, -0.2844467759132385, -0.03252626210451126, 0.3568764328956604, -0.22404803335666656, 0.030480053275823593, 0.24032609164714813, 0.12133078277111053, -0.23603221774101257, 0.48862597346305847, -0.3378385305404663, 0.41127195954322815, -0.6609926223754883, -0.07215115427970886, 0.5488094687461853, 0.05951491370797157, 0.3275645971298218, -0.27830275893211365, 0.4839971661567688, -0.3579341769218445, -0.2303943783044815, -0.013609061017632484, 0.360840767621994, -0.10674456506967545, 0.6802146434783936, -0.1626734435558319, 0.14228425920009613, -0.48019275069236755, -0.3619306981563568, 0.191947802901268], [0.24164706468582153, 0.2547404170036316, -0.5249293446540833, -0.1981610357761383, 0.05281797796487808, 0.31095150113105774, 0.2549562454223633, 0.10862155258655548, 0.03545510768890381, 0.18582656979560852, -0.2931469976902008, 0.03440646827220917, 0.2705746591091156, 0.002587141003459692, -0.5588043332099915, 0.5997892022132874, 0.5081353783607483, 0.31305503845214844, 0.5142823457717896, -0.23942850530147552, -0.2322692722082138, -0.2250007688999176, 0.16734516620635986, -0.2888840436935425, -0.7098410725593567, -0.069743312895298, 0.3488120436668396, 0.13269589841365814, 0.5481554269790649, -0.2828013300895691, -0.19359098374843597, -0.4748731851577759, 0.15687696635723114, 0.22027742862701416, 0.16252021491527557, 0.4139597415924072, 0.26674261689186096, 0.10105569660663605, -0.1006297692656517, -0.010022112168371677, 0.2454531043767929, 0.0013667133171111345, 0.12803684175014496, -0.18145990371704102, -0.0532757043838501, -0.5696783661842346, 0.203114852309227, 0.21444205939769745], [-0.16036300361156464, -0.649651825428009, 0.02803533710539341, -0.17893102765083313, 0.03510651737451553, 0.14693613350391388, 0.20007388293743134, -0.09734397381544113, -0.6321117281913757, 0.32162052392959595, 0.1544913500547409, -0.22377511858940125, 0.2206469029188156, 0.1981516033411026, 0.15647444128990173, 0.2965729832649231, 0.1013484075665474, -0.026178840547800064, 0.06885281205177307, -0.26866236329078674, -0.029093246906995773, 0.13629168272018433, 0.10261308401823044, 0.20193439722061157, 0.35119572281837463, -0.24417544901371002, -0.1315537691116333, -0.07000715285539627, 0.40395092964172363, -0.1210552528500557, 0.7349892258644104, -0.3045092523097992, -0.1914084404706955, -0.2568013072013855, 0.07989606261253357, -0.5347659587860107, -0.31799939274787903, -0.15285906195640564, -0.16076676547527313, 0.3361140787601471, 0.6146458387374878, -0.6755855679512024, 0.17751523852348328, -0.011579991318285465, -0.1546402871608734, 0.18493516743183136, 0.19318115711212158, -0.2040969431400299], [-0.0559983067214489, -0.4052870273590088, 0.18971017003059387, -0.1910855621099472, 0.3603609502315521, -0.04134862869977951, 0.17077964544296265, 0.12083660066127777, -0.03508066013455391, -0.33723410964012146, 0.2459241896867752, 0.2476043552160263, -0.24329732358455658, -0.2597349286079407, -0.521138072013855, 0.3347126245498657, -0.06191921606659889, -0.3173108994960785, -0.08554661273956299, 0.5176749229431152, 0.24011054635047913, -0.13929645717144012, 0.5006056427955627, -0.21204650402069092, -0.23327195644378662, -0.06762495636940002, -0.14000016450881958, -0.0013756396947428584, 0.0328863263130188, 0.08918362855911255, -0.34715235233306885, 0.023099716752767563, 0.18163101375102997, -0.0062290942296385765, -0.3001590669155121, 0.29158419370651245, 0.1961618959903717, 0.02045532315969467, 0.028194811195135117, 0.04404490441083908, 0.03211856260895729, -0.2756616175174713, -0.15573187172412872, 0.011471588164567947, 0.20654310286045074, -0.3875614404678345, 0.26212799549102783, 0.1162424311041832], [0.2386976033449173, 0.1256445348262787, 0.5321789383888245, 0.3208264112472534, 0.20903924107551575, -0.3277052938938141, -0.547919750213623, 0.18084363639354706, -0.4352703392505646, 0.1242552176117897, 0.39888954162597656, -0.46370863914489746, -0.26763829588890076, -0.24995115399360657, -0.28719255328178406, -0.49346688389778137, 0.1987200230360031, -0.24515898525714874, 0.32208800315856934, -0.20052990317344666, -0.014114021323621273, 0.31142961978912354, 0.0023926529102027416, -0.21257242560386658, -0.07825345546007156, -0.0385148748755455, -0.4905853867530823, -0.46195897459983826, 0.43734046816825867, -0.0743432268500328, -0.12266121059656143, 0.3196238875389099, 0.7491294741630554, 0.483243465423584, 0.18059901893138885, -0.2515902519226074, -0.4256221055984497, -0.2538660764694214, 0.2711166441440582, 0.10809291154146194, -0.2463889718055725, 0.42184919118881226, -0.2143038511276245, 0.10877777636051178, -0.12264146655797958, -0.1604648381471634, 0.19363544881343842, 0.051952753216028214], [0.08455102890729904, 0.02748171053826809, -0.2269115000963211, 0.009830903261899948, -0.32941582798957825, -0.07729919254779816, 0.08912967145442963, -0.7347652912139893, 0.34171661734580994, -0.3523138761520386, -0.3438522517681122, -0.6904657483100891, 0.20194488763809204, 0.43849509954452515, 0.12771880626678467, 0.09136483818292618, -0.29494908452033997, 0.16085678339004517, -0.014910011552274227, 0.8595135807991028, -0.15612177550792694, 0.46682360768318176, 0.06880085915327072, 0.4498189687728882, -0.32489216327667236, -0.28630316257476807, -0.18023735284805298, -0.3153567612171173, -0.015952063724398613, -0.23000700771808624, -0.4499421715736389, -0.1885736733675003, 0.5719980001449585, 0.13808022439479828, 0.31905776262283325, -0.27519461512565613, -0.5296260118484497, -0.4866533875465393, -0.4444074034690857, 0.19715231657028198, 0.20778554677963257, 0.07020080834627151, 0.3443906307220459, 0.10558436810970306, 0.3396722376346588, 0.05495361611247063, -0.3750148415565491, -0.04603295028209686], [-0.21312686800956726, 0.15549445152282715, -0.3451026678085327, 0.0045759971253573895, -0.1074899286031723, -0.11177483946084976, -0.15062463283538818, -0.096656933426857, 0.15705445408821106, -0.2390170842409134, -0.21413648128509521, -0.34075573086738586, 0.5132445096969604, -0.32597815990448, 0.3465954661369324, 0.05925433337688446, -0.45614850521087646, 0.4108322560787201, -0.6472351551055908, -0.6608683466911316, -0.1466933935880661, -0.2997919023036957, -0.2985824644565582, 0.5031123161315918, 0.605259120464325, -0.16100095212459564, 0.2525169849395752, -0.03414267674088478, 0.227034792304039, 0.1511068493127823, 0.5197418928146362, 0.19325163960456848, 0.12219811230897903, -0.05937797948718071, 0.017121007665991783, -0.07826016843318939, -0.09475389868021011, -0.10319070518016815, 0.21818800270557404, -0.06338626891374588, 0.13353584706783295, -0.13054212927818298, -0.21685844659805298, 0.2709609866142273, 0.03652501106262207, -0.35815054178237915, 0.25770387053489685, 0.660072386264801], [0.22332066297531128, -0.40917620062828064, 0.12490961700677872, -0.0950784981250763, -0.2809149920940399, 0.810942530632019, -0.15912732481956482, -0.31403180956840515, -0.026277130469679832, -0.4766126871109009, 0.29966580867767334, -0.20693625509738922, -0.0016517967451363802, 0.28776684403419495, -0.103782057762146, -0.15840445458889008, 0.05711096152663231, 0.2289590686559677, 0.22017113864421844, -0.0440082848072052, -0.16378501057624817, -0.013387580402195454, 0.09557273983955383, -0.3258837163448334, 0.2485571801662445, -0.28514182567596436, 0.18089815974235535, 0.36314594745635986, 0.47627732157707214, -0.31328946352005005, -0.24766181409358978, -0.12628638744354248, -0.05727154389023781, 0.0571209117770195, -0.19070418179035187, -0.13595232367515564, 0.3407888412475586, 0.2416948527097702, -0.2917447090148926, -0.03637002781033516, 0.008507078513503075, 0.3043895363807678, 0.247995063662529, -0.5110602378845215, -0.3571404814720154, 0.36469075083732605, -0.023210499435663223, -0.156886026263237], [-0.08053863793611526, -0.1361679881811142, -0.5605586171150208, -0.44618430733680725, -0.19115455448627472, -0.058073073625564575, -0.5306392908096313, 0.4336439073085785, 0.07416684180498123, 0.40325140953063965, 0.18686796724796295, -0.0312875472009182, 0.37505507469177246, -0.14076854288578033, 0.12119267135858536, 0.44065093994140625, 0.2125670313835144, 0.29420027136802673, 0.14013592898845673, -0.18115556240081787, -0.4334253966808319, 0.3238239288330078, 0.4789506196975708, -0.09092038869857788, 0.04531226307153702, 0.06165524944663048, 0.33467113971710205, -0.07041783630847931, 0.09976942837238312, -0.29673075675964355, -0.31040406227111816, 0.20111580193042755, -0.3906775414943695, -0.24319393932819366, -0.048988714814186096, -0.4743919372558594, 0.2983189821243286, 0.32695773243904114, 0.2281801998615265, 0.052203819155693054, -0.4995441734790802, -0.35252252221107483, 0.35602715611457825, -0.1096082404255867, 0.34405970573425293, 0.3958314061164856, -0.18594792485237122, 0.29178884625434875], [-0.20025719702243805, -0.017627151682972908, 0.20632360875606537, 0.23934701085090637, -0.032982077449560165, 0.32851076126098633, 0.1265648603439331, -0.44699591398239136, 0.4117380976676941, -0.019572483375668526, 0.2772379517555237, 0.09371177852153778, -0.1549742966890335, 0.2887488305568695, 0.09802261739969254, -0.7683413028717041, -0.30357638001441956, 0.16859236359596252, 0.2798652648925781, 0.4098723232746124, 0.3387972414493561, 0.023471428081393242, -0.3484306335449219, 0.11057420074939728, 0.6701791286468506, 0.04755125939846039, -0.032604899257421494, 0.40972232818603516, -0.5347331166267395, 0.06961503624916077, -0.08643709123134613, 0.30716317892074585, 0.6033182740211487, 0.028689470142126083, 0.26674649119377136, -0.4470965564250946, -0.27969908714294434, -0.23955385386943817, -0.01622283086180687, -0.10255412757396698, 0.10300378501415253, -0.3267371952533722, 0.3718112111091614, -0.10618103295564651, -0.21823278069496155, 0.3717998266220093, -0.1197105348110199, 0.1944683939218521], [0.41490182280540466, -0.16289252042770386, 0.42973506450653076, 0.10650665313005447, -0.18056620657444, -0.2864646911621094, 0.24368686974048615, 0.08192992210388184, -0.3417760133743286, 0.047544319182634354, 0.49527496099472046, -0.48184746503829956, -0.012577759101986885, 0.015633706003427505, 0.037020839750766754, 0.4391164779663086, -0.1380702257156372, -0.17701657116413116, 0.09109625220298767, -0.21695366501808167, 0.26897868514060974, -0.3449256420135498, -0.009647597558796406, 0.08648664504289627, -0.11136991530656815, 0.03934376686811447, 0.20349223911762238, 0.3052973449230194, -0.04358142241835594, -0.18732555210590363, 0.09783120453357697, -0.22190961241722107, -0.009982730261981487, -0.37435680627822876, -0.17869001626968384, 0.7152264714241028, 0.11041576415300369, -0.39963698387145996, -0.04183037206530571, -0.1600409597158432, 0.5279987454414368, 0.4965388774871826, -0.53793865442276, -0.3601366877555847, -0.006564372219145298, -0.37412500381469727, 0.4311292767524719, -0.2772020995616913], [-0.1298031508922577, 0.25746649503707886, -0.3281271159648895, 0.12814368307590485, -0.6004394888877869, 0.40146416425704956, -0.4417320191860199, 0.028844859451055527, 0.018288735300302505, -0.18077503144741058, -0.1512804478406906, -0.25969669222831726, -0.05268523469567299, -0.0900261402130127, 0.3553187847137451, -0.25246256589889526, -0.07364357262849808, -0.20302735269069672, -0.09817658364772797, 0.4070870876312256, 0.1433936059474945, -0.348491370677948, 0.4155407249927521, -0.12545126676559448, 0.3548445999622345, 0.11877571046352386, -0.18876686692237854, 0.19167479872703552, 0.06883162260055542, -0.41134873032569885, -0.004890240263193846, -0.024342920631170273, -0.1502973437309265, -0.17681075632572174, -0.1820955127477646, -0.01600426435470581, 0.61323082447052, -0.007577423471957445, -0.08191429078578949, 0.009502972476184368, 0.12136120349168777, 0.6404346823692322, -0.2953357994556427, -0.2211005836725235, 0.069462351500988, -0.26327085494995117, 0.11773664504289627, 0.27359887957572937], [0.2777683734893799, 0.1497257798910141, 0.4293026626110077, 0.07444382458925247, 0.2876274287700653, 0.267402321100235, 0.4412856698036194, 0.29914751648902893, 0.4404950737953186, 0.2045089602470398, 0.03597903996706009, -0.06636317819356918, 0.1290411502122879, -0.188788041472435, 0.31224703788757324, 0.2642930746078491, 0.11037590354681015, 0.14174655079841614, -0.30516666173934937, 0.041372910141944885, -0.418232262134552, -0.042155925184488297, -0.41502225399017334, -0.22259800136089325, -0.04243132844567299, -0.05570545792579651, 0.3787292540073395, 0.16195526719093323, 0.17655210196971893, -0.230928435921669, -0.14910735189914703, -0.09134970605373383, 0.1295623481273651, -0.03763866424560547, -0.5465126037597656, 0.9377525448799133, 0.15354566276073456, -0.17191441357135773, -0.19666635990142822, -0.4810369908809662, -0.4123722314834595, 0.3258075714111328, 0.012682367116212845, -0.25794556736946106, -0.22678989171981812, -0.09939716011285782, -0.04441095143556595, -0.349123477935791], [-0.3626236915588379, 0.5609322786331177, -0.25405240058898926, -0.22534844279289246, -0.07986682653427124, -0.25704649090766907, -0.10917786508798599, -0.1995379775762558, -0.4030754864215851, 0.48041805624961853, -0.16446083784103394, 0.13538603484630585, 0.29798683524131775, 0.14443165063858032, 0.19687163829803467, 0.1283012479543686, -0.14184850454330444, 0.2327859103679657, 0.1066633090376854, 0.17374995350837708, -0.07195325195789337, -0.6599554419517517, 0.08578739315271378, 0.09549929946660995, 0.13426484167575836, 0.06696722656488419, 0.17010332643985748, 0.16290345788002014, 0.009994219057261944, -0.0013415024150162935, 0.2629105746746063, -0.6650859117507935, -0.38866880536079407, 0.167256698012352, -0.2699563801288605, -0.23551097512245178, 0.4018884301185608, 0.1385512351989746, -0.1829228401184082, 0.39153194427490234, -0.5705046653747559, -0.16639524698257446, -0.08251157402992249, 0.21876393258571625, -0.05394918471574783, -0.3836437165737152, 0.21631982922554016, 0.022441813722252846], [-0.303337424993515, -0.17906473577022552, -0.2616717517375946, -0.12503252923488617, 0.5188172459602356, 0.19758456945419312, 0.13810035586357117, -0.0579657256603241, -0.022015336900949478, -0.15091393887996674, -0.1898476779460907, -0.5169509649276733, -0.40610939264297485, -0.0007086816476657987, 0.015881162136793137, -0.06366575509309769, -0.1251954287290573, 0.027227409183979034, -0.3724556565284729, 0.08865473419427872, 0.009872176684439182, -0.39176249504089355, 0.06515347212553024, 0.10798855125904083, -0.17922036349773407, 0.13351623713970184, -0.31244519352912903, -0.1437532901763916, -0.1664225161075592, 0.29052409529685974, 0.1576160043478012, 0.004638319835066795, 0.13928475975990295, 0.01177116297185421, -0.22317370772361755, -0.33063581585884094, 0.11706750094890594, 0.21838931739330292, 0.2693213224411011, -0.10862947255373001, -0.15344445407390594, 0.16118749976158142, 0.09534549713134766, 0.20962899923324585, -0.03162017837166786, 0.15304090082645416, 0.3357665240764618, -0.23341234028339386], [0.22691002488136292, 0.07276381552219391, -0.13826708495616913, 0.15975578129291534, 0.17327606678009033, 0.14727285504341125, -0.12297504395246506, -0.39831915497779846, -0.02868487872183323, -0.15186065435409546, -0.2613898515701294, -0.12919987738132477, -0.26644808053970337, -0.05030438303947449, 0.018283935263752937, -0.2240564376115799, -0.14295953512191772, 0.40063801407814026, 0.20835669338703156, 0.429284930229187, -0.3770495355129242, -0.3231630325317383, -0.011156076565384865, 0.1455114632844925, 0.10447157174348831, 0.38702917098999023, 0.057796165347099304, 0.21609468758106232, -0.3195321559906006, 0.4208662807941437, -0.14536833763122559, -0.14208266139030457, 0.2793269455432892, -0.28178927302360535, -0.2879011929035187, 0.38646814227104187, -0.06369980424642563, 0.00035696502891369164, -0.006151198875159025, 0.5789287090301514, 0.08630797266960144, 0.4893438518047333, -0.2609196901321411, -0.04810561239719391, -0.014262359589338303, -0.5953549742698669, 0.48553410172462463, 0.5300459861755371], [0.10414258390665054, 0.21322473883628845, 0.021543679758906364, -0.03644127771258354, 0.09598207473754883, -0.20794039964675903, -0.10916110128164291, 0.7259383201599121, -0.06690821796655655, -0.27446693181991577, -0.37784144282341003, -0.5256363749504089, 0.04605402424931526, -0.20177564024925232, -0.09387949854135513, 0.36240845918655396, 0.3783895671367645, -0.2531483471393585, 0.19093726575374603, -0.3735544681549072, -0.005986301228404045, 0.4339596629142761, -0.3310859799385071, 0.22532908618450165, 0.18641707301139832, -0.06841900944709778, -0.15607358515262604, 0.2351209968328476, 0.08242937922477722, 0.2763866186141968, -0.15396331250667572, -0.23021762073040009, 0.11259612441062927, -0.01972181163728237, -0.2219887375831604, -0.24334758520126343, -0.14881372451782227, 0.5014218688011169, -0.02987796626985073, 0.03935946524143219, 0.0841486006975174, -0.04559051990509033, -0.060187928378582, 0.07084236294031143, 0.2158433347940445, 0.025811247527599335, -0.18578456342220306, -0.15119090676307678], [-0.4287566840648651, 0.15842528641223907, 0.14074687659740448, -0.2503322660923004, 0.2868754267692566, 0.19441688060760498, 0.15108607709407806, -0.12080708891153336, -0.01751156710088253, 0.06630057841539383, -0.3797745406627655, -0.4981418550014496, -0.31128162145614624, -0.06542272865772247, 0.04211844503879547, 0.15537825226783752, -0.21990394592285156, 0.27837276458740234, 0.07809564471244812, 0.11377708613872528, 0.3372774124145508, -0.14429187774658203, 0.47696399688720703, -0.41458436846733093, -0.3620538115501404, -0.28613796830177307, -0.26880258321762085, -0.20030604302883148, -0.05857140198349953, -0.019739985466003418, 0.20631828904151917, -0.5015106797218323, 0.06353170424699783, -0.3765870928764343, -0.10160519927740097, 0.06876150518655777, -0.1339285522699356, -0.16697359085083008, 0.07620713114738464, 0.23392663896083832, -0.27167823910713196, 0.21068309247493744, 0.46176013350486755, 0.15876616537570953, 0.08762719482183456, -0.057222310453653336, 0.10241509228944778, -0.13250136375427246], [0.7509751915931702, -0.20790807902812958, -0.6011472344398499, -0.12028229236602783, 0.22021259367465973, 0.11971434205770493, 0.34911713004112244, -0.06013863533735275, -0.3356495797634125, -0.3162609934806824, 0.6151149868965149, -0.1099928617477417, -0.183619424700737, 0.852368175983429, -0.20764848589897156, 0.6412208676338196, 0.041157737374305725, -0.10948853939771652, 0.11959291249513626, 0.006894791964441538, 0.3867412805557251, -0.4990297853946686, -0.22315861284732819, 0.2984596788883209, -0.04941495135426521, 0.16378431022167206, 0.275002658367157, 0.3551863133907318, -0.22154264152050018, 0.02680821903049946, 0.22285059094429016, 0.2987652122974396, 0.5025845170021057, 0.00015364673163276166, 0.1935965120792389, 0.4789963960647583, 0.10904155671596527, -0.4645005762577057, 0.019259825348854065, -0.05728534609079361, -0.23163068294525146, 0.07301871478557587, 0.38165849447250366, -0.35116708278656006, 0.1472512036561966, -0.2632516920566559, -0.008469993248581886, -0.195783331990242], [-0.43056344985961914, 0.5319790244102478, 0.19552817940711975, -0.027048198506236076, 0.4888295829296112, 0.03145938739180565, -0.030071454122662544, 0.5463477373123169, 0.2772756516933441, 0.030569659546017647, 0.6241622567176819, -0.11292381584644318, 0.4230336546897888, -0.1367976814508438, -0.1094706803560257, -0.3666604459285736, -0.1803455799818039, -0.19300173223018646, 0.30553367733955383, -0.09920067340135574, -0.2344820350408554, -0.055846601724624634, -0.02679440751671791, -0.11291907727718353, -0.1948285847902298, 0.13419638574123383, -0.1896892935037613, -0.21019475162029266, -0.09997618198394775, 0.06434113532304764, -0.03348308801651001, 0.2264280915260315, -0.20508982241153717, 0.35446852445602417, -0.1925848126411438, -0.07042721658945084, 0.16194957494735718, -0.17872942984104156, 0.45638927817344666, 0.11993811279535294, -0.07255539298057556, -0.15236642956733704, 0.24957698583602905, -0.3598942756652832, -0.31615152955055237, 0.35325706005096436, -0.19234749674797058, -0.10359898209571838], [0.13400398194789886, -0.16336598992347717, -0.15040776133537292, -0.5318447351455688, 0.07399886846542358, 0.11197508126497269, 0.7720534205436707, -0.03638618066906929, -0.007403119001537561, 0.14130577445030212, 0.26821368932724, -0.16702374815940857, 0.25697246193885803, -0.3348469138145447, 0.1760491281747818, 0.02578357420861721, 0.39013779163360596, -0.09004643559455872, -0.31848546862602234, 0.3461293578147888, -0.35682740807533264, -0.049429796636104584, 0.18461619317531586, -0.5113788843154907, -0.2972589433193207, 0.14646999537944794, 0.11111915111541748, 0.303818941116333, 0.25385811924934387, 0.015497392043471336, -0.05333879962563515, -0.1245451420545578, -0.008931470103561878, -0.40886959433555603, 0.090269535779953, -0.4465542435646057, 0.29226914048194885, -0.21682877838611603, 0.023397332057356834, -0.10325076431035995, 0.34344086050987244, 0.0025071364361792803, 0.2913283705711365, -0.003315580077469349, -0.4037056863307953, -0.31664806604385376, -0.0865490734577179, 0.0068880775943398476], [0.055878058075904846, 0.1077180802822113, 0.12169624119997025, -0.3848247528076172, -0.17321915924549103, 0.5778082609176636, 0.08511578291654587, -0.12952156364917755, 0.2902791202068329, -0.02707873098552227, -0.5595779418945312, 0.04816439747810364, 0.4707864224910736, 0.22144107520580292, -0.09240801632404327, -0.37950626015663147, 0.10595136880874634, 0.27019649744033813, -0.27664661407470703, 0.12733042240142822, 0.3917830288410187, -0.33387991786003113, -0.1816079020500183, 0.14410993456840515, 0.18588688969612122, 0.23117469251155853, -0.18779689073562622, 0.41248002648353577, 0.2536260783672333, 0.18055443465709686, 0.28631332516670227, 0.10851426422595978, 0.18711164593696594, 0.03563292324542999, -0.2728022038936615, -0.7201608419418335, 0.15243372321128845, -0.10496807098388672, 0.28180450201034546, -0.2788890302181244, 0.402749627828598, -0.16303420066833496, -0.3925343155860901, 0.44827669858932495, 0.021117232739925385, 0.13668985664844513, -0.5794440507888794, 0.12107323110103607], [-0.13100773096084595, 0.6140221953392029, -0.4631289541721344, 0.46572545170783997, 0.0892675593495369, -0.6514925956726074, -0.09821329265832901, 0.47286027669906616, -0.24531027674674988, -0.0850701704621315, 0.2308914065361023, -0.1511196792125702, -0.3989238739013672, -0.03508796542882919, -0.5457621216773987, -0.5724756717681885, 0.074412502348423, 0.0050642164424061775, -0.503609299659729, 0.033836036920547485, 0.007611074484884739, -0.3279644250869751, -0.3280828893184662, 0.16362331807613373, 0.16800540685653687, 0.20405788719654083, 0.3996350169181824, 0.11391980201005936, 0.46734264492988586, 0.3849773705005646, -0.1815415322780609, -0.21066904067993164, 0.20644967257976532, -0.30230459570884705, 0.08644028753042221, 0.1960059553384781, 0.3223944306373596, -0.034164831042289734, -0.07318233698606491, 0.036361467093229294, 0.08109292387962341, -0.04454313963651657, -0.1750885546207428, -0.1420518308877945, -0.4163297712802887, 0.5007912516593933, -0.6087074875831604, 0.44811344146728516], [0.1561128795146942, 0.2542945146560669, -0.006674550473690033, 0.3677985966205597, 0.11892593652009964, -0.21711792051792145, -0.2174414098262787, -0.16490043699741364, -0.5612269639968872, -0.24078421294689178, -0.4040648341178894, -0.4393560588359833, -0.26541897654533386, -0.0053238216787576675, 0.06701423227787018, 0.348244845867157, -0.21885009109973907, -0.49000316858291626, -0.3519924283027649, -0.6245827674865723, 0.3872939646244049, 0.09645690768957138, -0.4330930709838867, 0.23500791192054749, -0.14064554870128632, -0.18671175837516785, -0.16634459793567657, -0.0740739032626152, -0.18631193041801453, 0.13915188610553741, 0.18667033314704895, 0.46197429299354553, -0.01811601221561432, 0.15375038981437683, -0.16772915422916412, 0.12834548950195312, -0.06275973469018936, -0.06822061538696289, -0.3449121117591858, 0.34174999594688416, -0.0246833935379982, -0.020540304481983185, -0.2773781418800354, 0.3232406675815582, 0.21529783308506012, -0.2235002964735031, 0.4826549291610718, -0.5155924558639526], [0.3924240171909332, 0.13260118663311005, -0.4335465431213379, 0.4095114469528198, 0.46945488452911377, -0.15823784470558167, 0.18289941549301147, -0.12446966767311096, -0.009275724180042744, 0.1653667688369751, 0.49053066968917847, -0.0521521270275116, -0.45496079325675964, 0.07493974268436432, -0.023768017068505287, -0.14383000135421753, -0.2721106708049774, 0.0089675672352314, 0.2314237505197525, 0.24507997930049896, 0.33833739161491394, -0.08087112754583359, -0.5425673723220825, 0.15255622565746307, 0.25945666432380676, 0.23028990626335144, 0.5226951837539673, -0.41082391142845154, 0.3831252157688141, 0.329771488904953, -0.1706772893667221, -0.05399351194500923, -0.2577368915081024, 0.14514212310314178, 0.3601834177970886, -0.026635698974132538, -0.17335574328899384, -0.5263026356697083, 0.3357870280742645, -0.3972226679325104, 0.40502411127090454, -0.26824650168418884, -0.1863817423582077, 0.19402915239334106, 0.5224500894546509, -0.0216822549700737, -0.09358219802379608, 0.20107035338878632], [0.03970879688858986, -0.2594206929206848, 0.22139407694339752, -0.24727216362953186, 0.3376491963863373, 0.016596388071775436, 0.29631826281547546, 0.06412197649478912, 0.18944521248340607, -0.0704539567232132, -0.27896398305892944, 0.11000564694404602, 0.07744954526424408, 0.10302639752626419, -0.051281485706567764, 0.039803359657526016, 0.2244981974363327, 0.2528631091117859, 0.32507482171058655, -0.25489532947540283, -0.2218482345342636, -0.04820024222135544, 0.09879183024168015, 0.5559249520301819, -0.2981349229812622, 0.12890078127384186, -0.4172733426094055, -0.09104036539793015, -0.3698290288448334, -0.08588872849941254, 0.4280206859111786, 0.20657697319984436, 0.21131832897663116, 0.23179690539836884, 0.5444011688232422, -0.3027828335762024, -0.41105741262435913, -0.34120315313339233, -0.21650874614715576, -0.02202044054865837, 0.001239958219230175, -0.03479374572634697, -0.3078669011592865, -0.31244468688964844, 0.34611737728118896, -0.41757962107658386, -0.6819007396697998, 0.5658086538314819], [-0.15383398532867432, 0.10039283335208893, -0.010494180954992771, 0.13387531042099, 0.10948925465345383, -0.2721254527568817, -0.041821517050266266, -0.12576836347579956, 0.22084763646125793, 0.0709797665476799, -0.1726924180984497, -0.04412250220775604, 0.5843473076820374, -0.11667151004076004, 0.046721670776605606, -0.3409338891506195, 0.011612439528107643, 0.3340895473957062, -0.1745036542415619, -0.004719629883766174, 0.058212313801050186, -0.5512927174568176, 0.0058881863951683044, -0.11154460161924362, -0.22176900506019592, 0.0866006389260292, -0.18008340895175934, -0.44146159291267395, -0.14879481494426727, -0.13564923405647278, -0.4452626705169678, -0.2911244332790375, 0.2134304642677307, 0.08179183304309845, -0.2981681525707245, -0.026494547724723816, -0.29926350712776184, 0.0997585877776146, 0.015634220093488693, -0.9153274893760681, -0.4139697253704071, -0.09754356741905212, -0.06882479786872864, 0.017023762688040733, -0.05176277831196785, -0.22955617308616638, -0.5590270757675171, -0.08368205279111862], [0.018285712227225304, 0.116001196205616, 0.2237817347049713, -0.1445409059524536, 0.6387000679969788, 0.02107751928269863, -0.3393179774284363, 0.4200182855129242, -0.20137980580329895, 0.04120223969221115, -0.00612548366189003, 0.043586231768131256, 0.10405932366847992, -0.007464155089110136, 0.24397605657577515, -0.4742968678474426, -0.055731285363435745, -0.5365023016929626, 0.16959510743618011, -0.233064666390419, -0.18996207416057587, -0.03726930171251297, 0.04561929404735565, -0.5740130543708801, -0.03000599518418312, -0.3870854377746582, -0.42549511790275574, -0.3874884247779846, -0.1854192614555359, 0.026881640776991844, -0.17766396701335907, -0.06426707655191422, -0.3637354075908661, 0.008225967176258564, -0.6591413021087646, 0.3633204698562622, 0.10455692559480667, -0.37586116790771484, 0.49161192774772644, -0.41884297132492065, -0.3715960383415222, -0.10069633275270462, -0.4776313900947571, 0.025704041123390198, -0.07444029301404953, 0.07285812497138977, 0.3760662078857422, -0.3421306908130646], [0.47083958983421326, -0.32908427715301514, 0.18524448573589325, -0.09035056829452515, 0.38023641705513, -0.33057305216789246, -0.2918308675289154, -0.14574766159057617, 0.2908865511417389, -0.30472561717033386, -0.10979507118463516, -0.28626567125320435, -0.2522989511489868, 0.34761396050453186, -0.005836200434714556, 0.4197266101837158, 0.29695698618888855, -0.13386638462543488, -0.0769590511918068, -0.2012934535741806, -0.003935033455491066, -0.6392735242843628, 0.3935752809047699, -0.2557978332042694, 0.03375130519270897, -0.1525670289993286, -0.30429673194885254, 0.15912573039531708, 0.19595642387866974, -0.20998039841651917, -0.10093113034963608, -0.2245967537164688, 0.4613783061504364, -0.37840262055397034, -0.07260404527187347, -0.10378909111022949, 0.03978252410888672, -0.328571081161499, -0.5813938975334167, 0.12931065261363983, 0.3484208285808563, -0.0902484655380249, 0.01810738816857338, 0.11609941720962524, 0.18585161864757538, -0.16818152368068695, 0.061112385243177414, -0.11191017180681229], [0.2702197730541229, -0.3901768922805786, -0.5062695145606995, 0.2848193049430847, 0.28920692205429077, -0.10404261201620102, -0.11652425676584244, 0.717043399810791, -0.23788611590862274, 0.49976301193237305, 0.025579089298844337, 0.04791384935379028, 0.5987516045570374, -0.10790746659040451, -0.3051781952381134, -0.45298439264297485, 0.608522355556488, -0.2400403469800949, 0.011368805542588234, 0.04949703812599182, 0.04059954360127449, 0.3526845872402191, -0.019316963851451874, -0.25583377480506897, -0.19202566146850586, -0.10758976638317108, -0.1415722668170929, -0.27924755215644836, 0.057587265968322754, -0.017831889912486076, 0.2554929256439209, 0.4812532961368561, 0.13210687041282654, 0.328286349773407, 0.14976388216018677, 0.036085095256567, 0.05340244621038437, -0.005990269593894482, 0.49749502539634705, 0.375480979681015, -0.39799827337265015, 0.3107011914253235, 0.5826464295387268, 0.16066691279411316, -0.38361936807632446, 0.04019983112812042, -0.006143367383629084, -0.2148979902267456], [0.33318963646888733, -0.22973817586898804, 0.021954210475087166, -0.18973320722579956, -0.03994480147957802, -0.12874096632003784, -0.33041998744010925, 0.6345905065536499, 0.007426850497722626, -0.1374427229166031, -0.09063944965600967, -0.19556787610054016, 0.1892460435628891, 0.13515514135360718, -0.0169486403465271, -0.33185330033302307, -0.303422749042511, 0.21411390602588654, 0.038968637585639954, -0.3143971860408783, 0.350911408662796, -0.0638122707605362, 0.04237714037299156, -0.37729060649871826, -0.16753502190113068, 0.2581503987312317, 0.1940476894378662, -0.01835606060922146, 0.12139683216810226, -0.3958381414413452, 0.10269083082675934, -0.0929771438241005, -0.03789921849966049, 0.18045170605182648, -0.1118939146399498, 0.3841714560985565, 0.10916844755411148, -0.33887094259262085, 0.22155418992042542, 0.09278879314661026, -0.04129955172538757, -0.06487119197845459, 0.04084421321749687, 0.3178192675113678, 0.0320047102868557, 0.18495048582553864, 0.07675822079181671, -0.43417245149612427], [-0.4271963834762573, -0.6372421979904175, 0.07148509472608566, -0.11573059856891632, 0.4743903875350952, -0.2553107440471649, 0.15265661478042603, 0.22499188780784607, -0.05046525225043297, -0.05443662032485008, 0.26412278413772583, 0.021538347005844116, 0.3654686212539673, -0.25556889176368713, -0.10535025596618652, -0.09040090441703796, 0.09999179095029831, -0.19399845600128174, 0.575512707233429, -0.5279139280319214, -0.7924379706382751, -0.02640218287706375, 0.5529216527938843, 0.21738871932029724, -0.49075618386268616, 0.277818500995636, -0.2781124711036682, -0.5512880682945251, -0.013019461184740067, -0.2648496627807617, 0.3567541837692261, -0.17186453938484192, 0.5359793305397034, -0.16590416431427002, -0.23044513165950775, -0.04888591170310974, -0.05649704858660698, 0.35731929540634155, -0.2882903218269348, -0.34227728843688965, -0.1672765016555786, 0.19671176373958588, 0.3319954574108124, -0.1009010598063469, -0.23892268538475037, 0.15214930474758148, 0.24177704751491547, 0.09499533474445343], [0.3914523124694824, -0.4262830913066864, 0.3080243766307831, 0.09345017373561859, -0.6244175434112549, 0.11689838021993637, 0.3588414788246155, -0.12022581696510315, 0.3356229066848755, 0.06649108231067657, -0.17883960902690887, 0.4879607558250427, 0.10817097127437592, 0.2611403465270996, -0.22667010128498077, 0.44318270683288574, -0.21323539316654205, 0.2733539938926697, -0.3615427017211914, -0.054985444992780685, 0.4264056086540222, -0.45158258080482483, 0.673345148563385, -0.3622954189777374, -0.05810582637786865, -0.5532465577125549, 0.2771681547164917, 0.2734368145465851, -0.0526246540248394, 0.03929618373513222, 0.29702743887901306, -0.24508315324783325, 0.2558334469795227, 0.29147258400917053, -0.17605841159820557, 0.15783049166202545, -0.13320022821426392, -0.17936979234218597, 0.3542814254760742, 0.1542109102010727, 0.10056512802839279, 0.1277550309896469, 0.23294369876384735, -0.043979793787002563, -0.5276206731796265, 0.05808570981025696, 0.3568227291107178, -0.3697546124458313], [0.011224580928683281, -0.09038770943880081, -0.3684920072555542, 0.13353106379508972, 0.4518754184246063, 0.04998541995882988, 0.06806406378746033, 0.4695781171321869, 0.13934379816055298, 0.05560394376516342, -0.39188268780708313, -0.6104059815406799, -0.4781326949596405, 0.058739226311445236, 0.07848920673131943, -0.02208985574543476, 0.08925968408584595, -0.1335306614637375, -0.07455727458000183, 0.42467647790908813, -0.048608046025037766, 0.4516596496105194, -0.15479998290538788, 0.27208900451660156, -0.24796681106090546, 0.41337764263153076, -0.31978127360343933, 0.08645469695329666, 0.2776122987270355, 0.09225860983133316, -0.12391413748264313, -0.2816184163093567, 0.3562910556793213, 0.6677820086479187, -0.14476685225963593, 0.1486678570508957, 0.32013824582099915, -0.4279836416244507, -0.08221124112606049, 0.08008687943220139, 0.00852198526263237, 0.055053941905498505, -0.11745812743902206, 0.09481748938560486, 0.25990030169487, 0.07585243880748749, -0.39601045846939087, 0.5248772501945496], [0.20897692441940308, -0.04330876097083092, -0.10042541474103928, 0.2702978253364563, 0.25776907801628113, -0.15393474698066711, 0.029213139787316322, 0.2732701599597931, 0.16490226984024048, 0.09583179652690887, 0.440954327583313, -0.7923636436462402, 0.17866601049900055, 0.5003929138183594, 0.5201154947280884, 0.022602008655667305, -0.08576008677482605, 0.02703210338950157, -0.15672333538532257, -0.6930288672447205, -0.018837425857782364, -0.0653790757060051, -0.4566614031791687, -0.10098513215780258, -0.1223919540643692, -0.28214597702026367, 0.43197110295295715, 0.3937545716762543, 0.6042863130569458, 0.26408103108406067, 0.6447873711585999, 0.027091557160019875, -0.09342809021472931, -0.300822377204895, -0.149925097823143, 0.3602074384689331, 0.3193765878677368, 0.5910370945930481, 0.17104631662368774, 0.21272069215774536, -0.24391305446624756, 0.09713241457939148, -0.050063688308000565, -0.4816008508205414, 0.27355045080184937, 0.1723184883594513, 0.7566062211990356, 0.2760895788669586]]}, "Dense_1": {"bias": [0.09257859736680984, -0.11591056734323502, -0.4606006443500519, 0.36411798000335693, -0.20184671878814697, 0.07455874979496002, -0.4400715231895447, -0.41532087326049805, -0.2974494695663452, 0.6744794249534607, -0.03186231851577759, 0.020919691771268845, 0.29979678988456726, -0.11631469428539276, 0.045947372913360596, 0.05538304150104523, 0.1028454527258873, 0.293101966381073, -0.23515857756137848, -0.016817569732666016, 0.4317668080329895, 0.24403995275497437, 0.32557618618011475, 0.11416782438755035, -0.19371366500854492, 0.08565497398376465, 0.18696673214435577, 0.20066030323505402, 0.3355752229690552, 0.0074100857600569725, 0.2494349181652069, 0.27928152680397034, 0.11057326197624207, 0.18124715983867645, 0.11574483662843704, 0.20940694212913513, -0.012411773204803467, -0.009033064357936382, 0.031134063377976418, 0.48992833495140076, -0.23954236507415771, 0.01788841374218464, -0.4038655757904053, 0.38269129395484924, 0.048823803663253784, 0.12378198653459549, 0.0315084233880043, 0.13156941533088684], "kernel": [[-0.41482287645339966, -0.27417826652526855, 0.21766865253448486, 0.06597316265106201, 0.31589239835739136, 0.1357239931821823, 0.0244681965559721, -0.26830118894577026, 0.20802471041679382, 0.22672100365161896, -0.5348154306411743, 0.4474305510520935, -0.08780066668987274, -0.2101472169160843, -0.8466024398803711, 0.3014121353626251, -0.04473884403705597, -0.1389474719762802, -0.31324657797813416, 0.20926295220851898, 0.1707087904214859, -0.29441389441490173, 0.08978766202926636, 0.1870688498020172, -0.05604167282581329, 0.26123103499412537, 0.2570383548736572, -0.19044208526611328, 0.26709452271461487, 0.045717786997556686, -0.06413737684488297, 0.008486039005219936, -0.1302700638771057, 0.24267059564590454, -0.14737965166568756, 0.5291328430175781, 0.0649060606956482, -0.3327771723270416, 0.07308895140886307, 0.2805112600326538, -0.5492722392082214, -0.8403483629226685, 0.31625160574913025, -0.6858277320861816, -0.2646814286708832, 0.036974016577005386, 0.20962761342525482, -0.0043091303668916225], [-0.28377199172973633, 0.07388361543416977, -0.6001119017601013, -0.21527989208698273, -0.04073800891637802, 0.39436182379722595, -0.3709713816642761, 0.06593078374862671, -0.07813867181539536, -0.03241824731230736, -0.17914830148220062, -0.08086194097995758, -0.38754332065582275, 0.003522544400766492, -0.0628277137875557, 0.21043817698955536, 0.09121059626340866, -0.24161066114902496, 0.1815565973520279, 0.17932796478271484, 0.4778742790222168, 0.13081030547618866, -0.07446187734603882, -0.3295147120952606, 0.20987552404403687, -0.012117738835513592, 0.1699000895023346, 0.25862830877304077, -0.05589178204536438, -0.5942400693893433, 0.37525123357772827, -0.13943177461624146, -0.2915244400501251, -0.08777482807636261, 0.22870804369449615, -0.061575114727020264, -0.7196100354194641, -0.26959148049354553, 0.2643057107925415, 0.1649051010608673, -0.7324452996253967, -0.22147604823112488, -0.12767814099788666, -0.2269868701696396, -0.7886673212051392, -0.0074691856279969215, 0.16362197697162628, -0.15966196358203888], [0.060355596244335175, -0.15578655898571014, -0.4083223044872284, 0.17761355638504028, -0.376421719789505, 0.509056568145752, 0.5239148139953613, -0.18671998381614685, -0.036959465593099594, -0.2749110758304596, 0.008953421376645565, -0.2884894609451294, -0.2746344804763794, 0.03807978704571724, -0.9751169681549072, 0.04484131559729576, 0.21237227320671082, -0.031613923609256744, -0.08100002259016037, -0.043314073234796524, -0.374901682138443, -0.45602378249168396, -0.05478744953870773, -0.21310317516326904, 0.44225096702575684, -0.28625595569610596, 0.0191457811743021, 0.005930380895733833, -0.15303489565849304, 0.195940762758255, -0.16835667192935944, 0.10816342383623123, 0.07018668204545975, 0.7372680902481079, -0.037192001938819885, -0.0912463590502739, 0.011365002952516079, 0.06358438730239868, 0.09598899632692337, -0.2750396728515625, 0.08313580602407455, 0.7611423134803772, 0.0018939769361168146, -0.0008901968831196427, 0.209721639752388, 0.26974621415138245, 0.4481596350669861, -0.5888760685920715], [0.27193164825439453, 0.21584412455558777, -0.02295982837677002, 0.3037604093551636, -0.2407832145690918, 0.45308783650398254, 0.04985210672020912, 0.29161205887794495, -0.39729002118110657, 0.36712247133255005, -0.0742037296295166, 0.28469598293304443, 0.11373007297515869, -0.255323588848114, -0.11702236533164978, -0.01166920829564333, -0.14863376319408417, -0.2963252067565918, 0.32326915860176086, -0.17817020416259766, 0.04355704411864281, 0.10452070832252502, 0.06494513899087906, 0.26846981048583984, -0.40671059489250183, 0.279253214597702, -0.023708030581474304, 0.045987799763679504, 0.030219271779060364, -0.21143904328346252, -0.3288004398345947, -0.4558047354221344, 0.06470636278390884, -0.4605995714664459, 0.000664187187794596, -0.41309311985969543, 0.17166444659233093, 0.4367738366127014, 0.02677774801850319, 0.07772474735975266, -0.023681947961449623, 0.5521081686019897, -0.030216088518500328, -0.0913330540060997, 0.2708103656768799, -0.15404373407363892, -0.1017117127776146, 0.6931689381599426], [-0.013512549921870232, -0.17138172686100006, -0.029806965962052345, -0.1665366142988205, -0.41080886125564575, 0.5270308256149292, -0.255534827709198, -0.2689395844936371, 0.515430212020874, -0.2112671136856079, -0.22254888713359833, -0.08646745979785919, -0.5237025618553162, -0.1045975536108017, -0.11494234204292297, -0.0371214933693409, -0.3017740845680237, -0.6720844507217407, 0.5076975226402283, 0.24704058468341827, 0.013902607373893261, -0.17543946206569672, -0.4029448628425598, 0.12727083265781403, -0.03888225555419922, 0.13429512083530426, 0.2814311981201172, -0.28774017095565796, 0.25321799516677856, -0.21692140400409698, -0.21886470913887024, 0.3693786561489105, -0.14535686373710632, -0.15538139641284943, -0.22259357571601868, -0.09424298256635666, 0.6532015204429626, -0.12778274714946747, -0.05503331869840622, 0.18470846116542816, -0.5614008903503418, -0.3530842363834381, -0.14409105479717255, 0.03209957480430603, 0.413421094417572, 0.11162616312503815, -0.2684375047683716, 0.12529563903808594], [0.3588888943195343, 0.05036536231637001, 0.08747069537639618, -0.08563163876533508, 0.04180918261408806, -0.2159333974123001, -0.6313225626945496, 0.23061853647232056, -0.3325982987880707, -0.4156668484210968, -0.2003963589668274, -0.25035902857780457, 0.11841961741447449, -0.4910358190536499, 0.31641748547554016, -0.6726756691932678, -0.12757445871829987, 0.14782178401947021, 0.41391265392303467, -0.31338751316070557, -0.2972189486026764, -0.09601634740829468, 0.21368522942066193, -0.16248176991939545, -0.019648713991045952, -0.29369843006134033, -0.08263283222913742, 0.056128162890672684, 0.2558889389038086, -0.016731571406126022, 0.20206521451473236, -0.2878870964050293, -0.4455757141113281, -0.20216509699821472, -0.13538941740989685, 0.09333532303571701, 0.16118666529655457, 0.5093170404434204, 0.5953626036643982, -0.10641095787286758, 0.1346011906862259, 0.3373914659023285, 0.15510419011116028, 0.3065983057022095, -0.03545509651303291, -0.3041975498199463, -0.42027145624160767, 0.30479055643081665], [0.3789041042327881, -0.4240732491016388, 0.009908557869493961, -0.11131807416677475, -0.34570127725601196, 0.21822461485862732, 0.12856513261795044, 0.036862291395664215, -0.2286004275083542, 0.13591517508029938, 0.42706745862960815, 0.017040681093931198, -0.531804084777832, 0.5145596861839294, 0.005927650723606348, -0.43442487716674805, -0.014631681144237518, 0.39125367999076843, 0.18449054658412933, -0.007704971823841333, -0.34026044607162476, 0.1544993370771408, 0.17308488488197327, 0.34290966391563416, -0.28154072165489197, 0.02993597835302353, 0.13787613809108734, 0.11510997265577316, 0.43496352434158325, 0.5886014103889465, -0.14818748831748962, -0.7160231471061707, 0.06973519176244736, -0.010165462270379066, -0.04796554893255234, -0.04486784711480141, 0.04019898176193237, 0.01446034200489521, 0.3005548119544983, 0.01455202791839838, 0.2852444648742676, -0.13508498668670654, -0.25568270683288574, 0.20872873067855835, -0.36211246252059937, -0.13366518914699554, 0.017268255352973938, -0.37802132964134216], [-0.2790578603744507, -0.4528907537460327, -0.0025485893711447716, 0.0969623252749443, 0.07944606989622116, 0.22860273718833923, -0.052888136357069016, 0.01605072431266308, -0.19668908417224884, 0.32641664147377014, -0.5074731111526489, -0.13276343047618866, 0.34500041604042053, 0.215885192155838, -0.06474842131137848, 0.15864142775535583, -0.5695775151252747, -0.43382665514945984, -0.11323880404233932, -0.1573404222726822, -0.20759102702140808, -0.03138047084212303, 0.409845769405365, 0.4432436525821686, -0.2150520235300064, -0.23644757270812988, 0.0035906489938497543, 0.046494968235492706, 0.19041362404823303, 0.32192057371139526, 0.13150808215141296, -0.22645170986652374, 0.29488638043403625, -0.40953361988067627, 0.054212626069784164, 0.03485381603240967, 0.11961404234170914, 0.24288110435009003, 0.25641098618507385, 0.0025274641811847687, -0.2806802988052368, -0.22540773451328278, 0.258713036775589, -0.2891008257865906, 0.1627705991268158, -0.2154465615749359, -0.15119975805282593, 0.3335554897785187], [0.2283056080341339, 0.47293299436569214, -0.12492676824331284, 0.2627919018268585, -0.793503999710083, 0.1776065081357956, 0.03594740852713585, 0.09581805020570755, -0.24631431698799133, 0.5048010349273682, -0.016155194491147995, -0.3821104168891907, 0.3551352024078369, -0.024660244584083557, -0.18507327139377594, 0.33199596405029297, -0.41089707612991333, 0.02423171140253544, 0.2702701687812805, -0.34841686487197876, -0.22286339104175568, -0.722379207611084, -0.24286684393882751, 0.3704715371131897, -0.28674066066741943, -0.20677463710308075, 0.5313419103622437, -0.5594699382781982, -0.0015448605408892035, 0.4929376244544983, -0.27173489332199097, -0.17711693048477173, -0.14914380013942719, -0.1383393108844757, -0.015315230004489422, -0.6532670855522156, 0.24296048283576965, 0.12385180592536926, -0.028608059510588646, -0.43775418400764465, -0.08953431993722916, 0.07408536225557327, 0.09329871088266373, 0.36640071868896484, 0.4275473654270172, 0.1661735624074936, 0.07139208912849426, -0.015313095413148403], [-0.22111786901950836, -0.2244265079498291, -0.19405114650726318, -0.4597209692001343, -0.07375677675008774, 0.42740386724472046, 0.04900316148996353, -0.2171623855829239, 0.23238368332386017, 0.34080514311790466, 0.19132335484027863, 0.17875902354717255, -0.31978848576545715, -0.15295115113258362, 0.30101272463798523, 0.33693042397499084, -0.3168066740036011, -0.21584954857826233, 0.003041042946279049, -0.16709831357002258, -0.39170289039611816, 0.08941712230443954, 0.3470340669155121, -0.17582951486110687, -0.024740923196077347, -0.032347794622182846, 0.25375282764434814, -0.4965338110923767, 0.4744082987308502, -0.045250095427036285, 0.46614503860473633, -0.07663223147392273, 0.4417668879032135, -0.21620185673236847, 0.007254325784742832, 0.2855415344238281, -0.378507524728775, -0.3465210795402527, -0.27652451395988464, 0.3630758821964264, 0.10951939225196838, 0.5403085350990295, 0.03499870002269745, 0.23555834591388702, -0.08875128626823425, 0.2652794420719147, -0.4399621784687042, -0.049456506967544556], [0.07965344935655594, -0.7479772567749023, 0.36673107743263245, 0.3471234142780304, -0.2696167230606079, 0.2838901877403259, 0.4326360523700714, 0.3603075444698334, -0.21725162863731384, 0.10543405264616013, -0.4289318323135376, -0.447344571352005, -0.13962283730506897, 0.0847608894109726, -0.7676421403884888, 0.1958361715078354, -0.15572944283485413, -0.13710817694664001, 0.4961980879306793, -0.022308755666017532, -0.10107997059822083, 0.31851649284362793, -0.06862999498844147, 0.12859779596328735, -0.155368834733963, 0.08498331904411316, -0.2345464825630188, 0.17538195848464966, 0.09988328069448471, -0.14487628638744354, -0.08616605401039124, 0.3438208997249603, 0.11787870526313782, 0.2113177478313446, 0.02412915602326393, 0.4904536306858063, -0.2868327796459198, -0.13504253327846527, 0.16343159973621368, 0.015078205615282059, -0.20429812371730804, 0.31515076756477356, -0.03544623404741287, -0.7489577531814575, 0.2996150851249695, -0.11173434555530548, 0.5785685777664185, -0.17359159886837006], [0.15227274596691132, -0.001258433097973466, -0.13399456441402435, 0.10110748559236526, -0.1931401938199997, -0.1787397563457489, -0.08156155794858932, 0.10106319934129715, -0.008620277978479862, 0.0484212189912796, -0.07990838587284088, -0.286237895488739, 0.16309823095798492, -0.24521934986114502, 0.05182019993662834, -0.214982807636261, 0.02756744995713234, 0.24209187924861908, -0.44653111696243286, -0.07050248235464096, 0.6214383244514465, 0.10370783507823944, -0.3629189431667328, -0.10327361524105072, -0.01791638508439064, -0.0814555287361145, 0.05795576795935631, -0.5828142762184143, -0.11879148334264755, -0.025121387094259262, -0.2557372748851776, -0.04441897198557854, -0.23912999033927917, -0.42197558283805847, 0.6089816689491272, 0.09300950914621353, 0.06161192059516907, -0.09817177057266235, -0.020039722323417664, 0.14031560719013214, 0.04568023607134819, 0.5763681530952454, 0.28306859731674194, 0.15412862598896027, -0.36694592237472534, -0.39336708188056946, 0.2262231409549713, 0.34435898065567017], [-0.12555207312107086, -0.19128063321113586, 0.1905640959739685, 0.10850467532873154, -0.40786439180374146, -0.4124179780483246, 0.36151963472366333, -0.0291058961302042, 0.24434202909469604, 0.23005498945713043, -0.49399393796920776, -0.4746595025062561, -0.3556844890117645, -0.6842316389083862, 0.3928681015968323, 0.0388035923242569, 0.36105242371559143, -0.29961714148521423, -0.48960942029953003, -0.06951166689395905, 0.1356852948665619, -0.14949285984039307, -0.03694291040301323, -0.17883336544036865, -0.11407475918531418, -0.14084360003471375, -0.10244988650083542, 0.017863163724541664, -0.12776806950569153, 0.19911439716815948, 0.15785036981105804, 0.27570319175720215, 0.05186795815825462, -0.3804762363433838, 0.22023873031139374, -0.23185297846794128, 0.19336549937725067, -0.09823338687419891, -0.12695521116256714, 0.1107795462012291, 0.1208120733499527, 0.5025435090065002, 0.3635513484477997, 0.2871691584587097, -0.1262933313846588, 0.15471090376377106, -0.23918160796165466, 0.14134444296360016], [0.4647195339202881, -0.23457349836826324, 0.014520595781505108, -0.012120397761464119, 0.1833827793598175, 0.13770991563796997, 0.6171058416366577, 0.0581759512424469, -0.018838023766875267, 0.19437041878700256, -0.04587187618017197, -0.09442704916000366, -0.02364182472229004, 0.022599389776587486, -0.18092679977416992, 0.421109676361084, -0.4116222560405731, 0.010135123506188393, -0.46626588702201843, -0.17506375908851624, -0.009212817065417767, 0.6546362042427063, -0.2203141152858734, 0.3290174603462219, -0.5334348678588867, -0.007188341114670038, 0.04644502326846123, 0.1982111930847168, 0.2038385421037674, 0.05273560434579849, -0.2084856629371643, 0.1507388800382614, 0.03218327835202217, -0.5825241804122925, -0.09550034254789352, 0.5439381003379822, -0.04379645735025406, -0.4099399447441101, 0.2656070590019226, 0.5285314917564392, 0.4170205891132355, -0.11962579935789108, 0.5285183191299438, 0.002504975302144885, -0.40676066279411316, -0.4075166583061218, 0.0396382175385952, -0.17056609690189362], [-0.11621423065662384, -0.1380157619714737, 0.17448417842388153, 0.30546364188194275, 0.4708135724067688, 0.46281906962394714, 0.021071696653962135, 0.0780324935913086, 0.026135047897696495, 0.4911263585090637, 0.10770823806524277, -0.007712084334343672, -0.3589612543582916, -0.40228796005249023, 0.295133113861084, -0.07574276626110077, -0.018741248175501823, -0.12153342366218567, -0.26408031582832336, 0.09992887824773788, -0.21961992979049683, 0.1844867467880249, 0.02656729891896248, 0.11292333155870438, 0.059707850217819214, 0.27080032229423523, -0.1723686009645462, 0.2565171718597412, 0.2709144055843353, 0.2608315944671631, 0.41132494807243347, 0.6595274806022644, 0.13173791766166687, -0.28332507610321045, 0.20137420296669006, 0.05637041851878166, -0.05089635029435158, -0.03680583834648132, -0.270581990480423, -0.06439134478569031, 0.0050010038539767265, -0.36705461144447327, -0.6337006688117981, -0.22470027208328247, 0.29571759700775146, 0.17038671672344208, -0.07830411195755005, -0.27858367562294006], [0.3277089297771454, 0.10908979922533035, -0.4270378649234772, 0.36368343234062195, -0.12224814295768738, -0.2672741413116455, -0.15430401265621185, 0.09434033930301666, 0.8773292899131775, -0.23775002360343933, 0.24610154330730438, 0.02640627510845661, -0.28674378991127014, 0.30274349451065063, 0.07785149663686752, -0.8209530115127563, 0.1790647655725479, 0.09468605369329453, -0.21714265644550323, 0.055201634764671326, 0.11105943471193314, 0.29974183440208435, 0.1638847440481186, 0.4010334610939026, 0.04657701775431633, 0.08031517267227173, 0.013566466048359871, -0.23982006311416626, 0.6238648891448975, -0.048866622149944305, -0.2846042811870575, 0.018567563965916634, 0.37189945578575134, -0.06285544484853745, -0.16234959661960602, -0.7149640917778015, 0.4995671808719635, 0.5902620553970337, -0.16226574778556824, 0.045849915593862534, -0.20917163789272308, 0.163059264421463, 0.19796648621559143, 0.116423599421978, 0.04752511531114578, 0.17782993614673615, 0.3584308326244354, -0.3586343228816986], [0.060778096318244934, -0.1939452886581421, -0.16165468096733093, 0.07273933291435242, 0.14574655890464783, 0.026476755738258362, -0.8035160899162292, 0.12757118046283722, 0.485919713973999, -0.16073842346668243, 0.5991052985191345, 0.44872623682022095, -0.5833916664123535, 0.10707086324691772, 0.10465399920940399, 0.01772068254649639, -0.20460541546344757, 0.36103740334510803, -0.01753469742834568, -0.19581660628318787, -0.11842730641365051, -0.2006022334098816, 0.4617951214313507, 0.62331223487854, 0.2724599540233612, 0.5543442368507385, -0.09792903810739517, 0.40394818782806396, 0.1547604501247406, -0.07268182188272476, -0.1629689335823059, 0.14767129719257355, 0.04836501181125641, 0.3031317889690399, -0.16543252766132355, -0.2736537754535675, 0.7641448378562927, 0.09334670007228851, -0.17669819295406342, -0.3239000737667084, -0.09528309851884842, -0.13591916859149933, 0.050001632422208786, -0.12044184654951096, -0.2164471447467804, -0.02451038733124733, -0.06748500466346741, -0.5127930641174316], [-0.1847148835659027, 0.00689808651804924, -0.2748332917690277, 0.03489188849925995, 0.24165493249893188, 0.37686121463775635, -0.6742034554481506, -0.21212391555309296, -0.12081120908260345, -0.11355190724134445, -0.27170002460479736, -0.27404171228408813, 0.5155682563781738, 0.3182016909122467, -0.15492138266563416, -0.3964180648326874, 0.02297276258468628, 0.17225179076194763, -0.4001302421092987, -0.13198871910572052, -0.3932909071445465, 0.1360602229833603, 0.23445351421833038, -0.6954370141029358, -0.14318887889385223, -0.5361279249191284, 0.09129762649536133, -0.13707847893238068, -0.25267869234085083, -0.06268884241580963, 0.15461213886737823, -0.26748859882354736, -0.22390593588352203, 0.3220788538455963, -0.46305322647094727, -0.4268706142902374, -0.16139405965805054, 0.08768199384212494, -0.3914848864078522, 0.16803288459777832, 0.08891327679157257, 0.27912506461143494, 0.1575479358434677, 0.2121831625699997, -0.5159092545509338, -0.4175768792629242, -0.09911888092756271, -0.4442131221294403], [-0.12137570232152939, 0.025380270555615425, 0.1275298148393631, 0.12793436646461487, -0.07994907349348068, 0.22862030565738678, 0.5374302864074707, -0.05455510690808296, 0.327364981174469, 0.06227099522948265, 0.48299139738082886, 0.03520197048783302, -0.09175309538841248, -0.18062490224838257, 0.14576338231563568, -0.08471977710723877, -0.06413386762142181, 0.045887794345617294, 0.09250541031360626, 0.08544281125068665, 0.5880163311958313, -0.0361773855984211, -0.08365599811077118, -0.6573821902275085, 0.05210503563284874, -0.4024575650691986, 0.009938008151948452, 0.22564251720905304, 0.17597773671150208, -0.23086315393447876, -0.14657951891422272, -0.08037400990724564, -0.125853031873703, 0.1340857744216919, -0.11673051118850708, -0.29156139492988586, -0.12548477947711945, -0.28183454275131226, 0.034235406666994095, 0.11040821671485901, 0.06333226710557938, -0.029269583523273468, 0.4041318893432617, -0.29334643483161926, 0.5155672430992126, -0.2063659131526947, 0.07872510701417923, 0.16265329718589783], [0.026906225830316544, -0.20810721814632416, 0.11051604896783829, -0.320539265871048, 0.1441214382648468, 0.12593896687030792, 0.11061342805624008, -0.2233750969171524, -0.465516060590744, 0.06876058876514435, 0.09292346984148026, 0.13433857262134552, -0.37261053919792175, 0.4801056385040283, 0.2215733677148819, 0.24507275223731995, 0.2284785360097885, 0.01338878646492958, 0.014041704125702381, -0.4925454556941986, 0.11242914199829102, 0.2098546177148819, -0.2273053526878357, 0.27360862493515015, -0.13761687278747559, 0.36930328607559204, -0.003427007468417287, 0.35152769088745117, 0.1597641557455063, 0.3100738525390625, 0.039986930787563324, -0.07158151268959045, 0.20493470132350922, 0.38815924525260925, -0.12007036805152893, -0.3763746917247772, 0.07556017488241196, -0.10812082886695862, 0.2544631063938141, -0.0629490464925766, 0.7122582793235779, -0.10852458328008652, -0.5258859992027283, 0.1510116159915924, -0.11765313893556595, 0.2730097770690918, -0.24518415331840515, -0.07835225760936737], [-0.05380634590983391, 0.14608027040958405, -0.5526843070983887, -0.2628827393054962, 0.07497531175613403, 0.5656010508537292, 0.018334079533815384, 0.2083403617143631, -0.01497939694672823, 0.025719083845615387, -0.08968150615692139, -0.37855085730552673, -0.22101165354251862, 0.064900241792202, 0.2548314332962036, -0.11908504366874695, 0.04765177145600319, 0.007561180740594864, -0.31001484394073486, 0.13475778698921204, -0.18103568255901337, 0.27168557047843933, 0.09993091970682144, 0.04705382511019707, -0.4583388566970825, 0.50201815366745, 0.5526874661445618, -0.012720519676804543, 0.19924667477607727, -0.12048745900392532, 0.31724268198013306, 0.4893278181552887, 0.31822440028190613, -0.18832407891750336, -0.01901758462190628, 0.15636400878429413, -0.15392741560935974, 0.19558724761009216, -0.00905690249055624, -0.046020109206438065, -0.13147342205047607, -0.8261269330978394, 0.020159263163805008, -0.1854119449853897, 0.4887610673904419, 0.16628406941890717, 0.003002007259055972, -0.2545586824417114], [0.30364689230918884, -0.4438150227069855, 0.4682507812976837, -0.2970157265663147, 0.4313278794288635, -0.23284481465816498, -0.28320246934890747, -0.44166702032089233, 0.28828299045562744, -0.1222626343369484, 0.05857473984360695, -0.2570864260196686, -0.4678676128387451, 0.01641864888370037, -0.30224698781967163, 0.43254685401916504, -0.6761134266853333, -0.08659182488918304, 0.014797765761613846, 0.08269014209508896, 0.10561085492372513, -0.242787703871727, -0.3638048768043518, -0.28698277473449707, -0.1352391541004181, -0.10787419974803925, -0.2805323898792267, 0.28766733407974243, -0.12905535101890564, -0.30183911323547363, -0.18413937091827393, -0.418580561876297, 0.3550575375556946, 0.180901437997818, -0.15676410496234894, 0.05083019658923149, 0.15189601480960846, -0.12479428946971893, 0.11844085156917572, -0.01688210666179657, -0.6774701476097107, 0.26017192006111145, 0.11582458764314651, 0.06516280770301819, -0.005062933079898357, 0.07111462950706482, -0.3912426829338074, -0.21810925006866455], [-0.23611843585968018, 0.6733158826828003, 0.16008156538009644, 0.18792106211185455, -0.5478535890579224, 0.2569686472415924, 0.09123249351978302, 0.4127252697944641, 0.18972672522068024, 0.3792526125907898, 0.36603736877441406, -0.2593662142753601, 0.12087712436914444, -0.38052529096603394, 0.06054398790001869, -0.1841917335987091, 0.11139069497585297, -0.10454656183719635, 0.07599332928657532, 0.06923364102840424, -0.04898246005177498, -0.10995487868785858, 0.047807518392801285, -0.445175439119339, 0.07861615717411041, -0.1848253607749939, 0.23770087957382202, 0.2881259024143219, 0.30076080560684204, -0.1329452097415924, -0.06706162542104721, 0.37473374605178833, -0.6198181509971619, 0.03531011566519737, -0.35878515243530273, -0.16410088539123535, -0.4144017696380615, 0.1914360672235489, -0.218122661113739, -0.1967775821685791, -0.20489655435085297, 0.15902061760425568, 0.19639232754707336, -0.14209643006324768, -0.01839907094836235, -0.37688374519348145, 0.17505931854248047, -0.3738628029823303], [0.11541074514389038, 0.22193439304828644, 0.05393153056502342, -0.47183355689048767, 0.27120161056518555, -0.15830010175704956, 0.3028412163257599, 0.06663968414068222, 0.1495107263326645, 0.35724934935569763, -0.39663898944854736, -0.2613641619682312, -0.05759267136454582, -0.16588780283927917, -0.3239121437072754, -0.16810838878154755, -0.19803287088871002, -0.03376076743006706, 0.19816820323467255, 0.23590520024299622, 0.10921411961317062, -0.09817652404308319, 0.2629110813140869, 0.0976608470082283, -0.1986449956893921, 0.07300470024347305, -0.0952577069401741, 0.03093295730650425, 0.1711699515581131, 0.10480401664972305, -0.6274622082710266, 0.38156116008758545, 0.24187539517879486, -0.0044171446934342384, 0.4747673273086548, 0.24419832229614258, 0.0481196753680706, 0.04843642935156822, -0.11255219578742981, -0.0501415953040123, -0.036873020231723785, -0.2986759841442108, -0.5722727179527283, -0.12948846817016602, 0.19105106592178345, -0.04078948497772217, 0.05413882061839104, 0.11025088280439377], [0.4069802463054657, 0.1350024938583374, 0.17744654417037964, -0.01822507753968239, 0.013428431004285812, 0.26626479625701904, 0.28542542457580566, -0.24659039080142975, 0.37238752841949463, 0.24134810268878937, -0.5935961604118347, -0.31686776876449585, 0.2718128263950348, -0.13035966455936432, 0.6266072392463684, 0.3187536597251892, 0.15500785410404205, 0.015547685325145721, 0.0342281349003315, -0.09825518727302551, 0.1951397955417633, -0.12328792363405228, 0.4342585504055023, -0.13194158673286438, -0.036749958992004395, 0.3330076336860657, 0.3000882565975189, -0.2518482208251953, -0.2334682196378708, -0.37241464853286743, -0.0464818961918354, 0.2923978567123413, -0.5274500250816345, -0.12192928791046143, 0.23302003741264343, -0.42125144600868225, 0.7477005124092102, 0.32488706707954407, -0.21982207894325256, -0.014352337457239628, 0.25768178701400757, 0.023999841883778572, -0.036742519587278366, -0.01695125922560692, 0.17825931310653687, 0.14059866964817047, 0.47453299164772034, -0.3317827880382538], [-0.03752369433641434, -0.07183068990707397, -0.0974499061703682, 0.29552677273750305, 0.06357968598604202, 0.2784959077835083, 0.16931790113449097, 0.38553386926651, 0.0719783753156662, 0.6553956270217896, 0.3923656642436981, 0.33963990211486816, 0.07778019458055496, 0.09955109655857086, -0.3701682388782501, 0.43471428751945496, -0.299963116645813, -0.3840163052082062, 0.586782693862915, -0.06917169690132141, 0.35153985023498535, -0.0018233592854812741, -0.12686319649219513, -0.41108283400535583, 0.4116505980491638, -0.2535184323787689, 0.29961442947387695, -0.34607142210006714, 0.18615511059761047, -0.045713067054748535, -0.0366179533302784, 0.11626778542995453, 0.6500789523124695, 0.26255396008491516, -0.53160560131073, -0.04225213825702667, -0.14135339856147766, -0.19323532283306122, -0.21322600543498993, 0.0873853787779808, 0.4923824369907379, -0.4253336489200592, -0.16872012615203857, -0.7852351069450378, -0.14919455349445343, -0.10411840677261353, -0.33750295639038086, -0.36694207787513733], [-0.33511391282081604, 0.20674970746040344, -0.22301997244358063, 0.4703866243362427, -0.1371615082025528, 0.03435256704688072, 0.442766934633255, -0.7031223177909851, -0.21039342880249023, 0.014616064727306366, 0.20440486073493958, -0.08180837333202362, -0.20369380712509155, -0.5186928510665894, 0.422677218914032, 0.09756751358509064, 0.10872918367385864, -0.32540470361709595, -0.033196914941072464, -0.35385656356811523, -0.2963451147079468, 0.20948085188865662, 0.9426531791687012, -0.43937933444976807, -0.10240273177623749, -0.018862783908843994, -0.014966807328164577, -0.42279112339019775, -0.5426581501960754, 0.4790644347667694, -0.5581004619598389, -0.04542005434632301, 0.3678399324417114, -0.01841181516647339, 0.584050714969635, -0.6098311543464661, 0.1599990278482437, 0.6464956402778625, -0.0006622824585065246, -0.5524007678031921, 0.2989560067653656, 0.44547849893569946, -0.12362050265073776, 0.23229734599590302, 0.3983057737350464, 0.11029889434576035, -0.06385119259357452, -0.4293510615825653], [0.28972551226615906, 0.007012581452727318, -0.1071585863828659, 0.20395056903362274, -0.003966339398175478, -0.15287946164608002, 0.03355950489640236, 0.004671025555580854, -0.13114191591739655, 0.25755614042282104, 0.25140100717544556, -0.005809369031339884, 0.10861145704984665, 0.3009617030620575, 0.4023383557796478, 0.5723311305046082, 0.14989735186100006, -0.0126096922904253, -0.15076647698879242, 0.5723158121109009, 0.2980482280254364, 0.09732069075107574, 0.08534993976354599, -0.07659182697534561, -0.03044523485004902, -0.22718745470046997, 0.623659074306488, -0.2104971557855606, 0.08611830323934555, 0.017189137637615204, -0.24834191799163818, -0.6356889009475708, 0.01250525563955307, 0.19991356134414673, 0.6768523454666138, -0.02760719135403633, 0.009511853568255901, -0.5285781621932983, -0.02578558772802353, 0.29295578598976135, 0.04632532596588135, -0.19282223284244537, -0.05043739080429077, -0.08208809047937393, -0.20608197152614594, 0.43350109457969666, -0.11295892298221588, 0.24360860884189606], [0.09189533442258835, 0.41076183319091797, 0.1498040109872818, 0.1565113663673401, 0.07135972380638123, -0.23028536140918732, -0.2756197452545166, 0.12408394366502762, 0.4295866787433624, 0.19264358282089233, 0.4264596104621887, -0.07922878861427307, 0.11153494566679001, -0.4709070324897766, 0.0577191561460495, 0.2822518050670624, 0.049689214676618576, 0.2259691059589386, -0.34327125549316406, 0.15497295558452606, -0.1528952270746231, -0.24048657715320587, -0.006717188283801079, 0.48819994926452637, -0.21078649163246155, 0.07455703616142273, -0.1351802498102188, 0.6706607937812805, 0.21281763911247253, -0.20869334042072296, 0.15910562872886658, 0.27579185366630554, 0.2239351123571396, 0.25753581523895264, -0.0006023191381245852, 0.02490035630762577, 0.3498234450817108, -0.1788434237241745, 0.0057114483788609505, 0.2697402238845825, 0.45181897282600403, -0.17599236965179443, -0.32592275738716125, 0.16890203952789307, -0.21419371664524078, -0.13270123302936554, -0.10248216241598129, 0.13274836540222168], [-0.029538249596953392, -0.17152588069438934, 0.11936061829328537, -0.17285795509815216, 0.23966769874095917, 0.035467710345983505, 0.7238740921020508, -0.0924973115324974, 0.047817397862672806, -0.2866421043872833, -0.17276260256767273, -0.16426753997802734, 0.060460057109594345, 0.016670171171426773, -0.2082376331090927, -0.07565981894731522, -0.345834344625473, 0.0289609394967556, -0.20916694402694702, -0.10900618135929108, -0.2182626873254776, -0.2741453945636749, -0.03494396060705185, -0.07739683240652084, -0.0042020282708108425, -0.07836312055587769, 0.20334723591804504, 0.5577625632286072, 0.22167353332042694, 0.25565043091773987, -0.009398563764989376, -0.027460390701889992, -0.02795712649822235, 0.032179731875658035, -0.10265013575553894, -0.01090733241289854, -0.17796699702739716, 0.0872388482093811, 0.09942691028118134, 0.007890100590884686, -0.19226717948913574, 0.1056242510676384, -0.25960439443588257, -0.3497956693172455, -0.1580493301153183, -0.14990931749343872, 0.07434415817260742, 0.006129975896328688], [-0.17965218424797058, -0.3017643094062805, -0.258833646774292, 0.4583578109741211, 0.18665020167827606, -0.1449955701828003, -0.19825489819049835, -0.13920405507087708, 0.15373358130455017, -0.27680113911628723, -0.16666017472743988, -0.07922341674566269, 0.037970785051584244, -0.3675757944583893, -0.004080965183675289, 0.26094165444374084, -0.5357767343521118, 0.06484845280647278, -0.26950564980506897, 0.17583656311035156, 0.5467852354049683, 0.5118579268455505, -0.301713228225708, 0.009346401318907738, -0.23466937243938446, -0.02515934407711029, -0.0459023043513298, 0.2035140097141266, 0.10354571789503098, -0.1293245404958725, -0.011030876077711582, 0.02047884091734886, 0.3069242238998413, 0.18997323513031006, 0.014564543962478638, 0.4375931918621063, 0.30934956669807434, 0.003794680116698146, -0.047641120851039886, -0.16625429689884186, 0.01883389800786972, 0.17433932423591614, -0.11637037247419357, 0.10999560356140137, -0.1842445433139801, 0.30609723925590515, 0.5053134560585022, -0.39623522758483887], [0.14668096601963043, -0.015150385908782482, -0.37944161891937256, -0.4510561227798462, -0.08377497643232346, 0.05125003680586815, 0.017645826563239098, 0.12361808866262436, 0.21398575603961945, 0.6160279512405396, 0.17494988441467285, -0.3440245985984802, -0.16082589328289032, 0.1916191279888153, -0.1493290364742279, -0.31624454259872437, -0.07179184257984161, 0.24043793976306915, 0.2319246232509613, -0.3675178289413452, -0.16429421305656433, -0.007513017859309912, 0.09962863475084305, -0.7802214622497559, 0.4441293776035309, 0.21587030589580536, -0.3017822206020355, -0.24658425152301788, 0.23091232776641846, -0.11471503973007202, 0.1540219634771347, -0.3995831608772278, 0.3920120596885681, 0.08030149340629578, 0.4820939898490906, 0.47012031078338623, 0.22642603516578674, 0.4139779806137085, 0.09889749437570572, 0.15152700245380402, -0.24282854795455933, 0.07604988664388657, 0.16904324293136597, -0.23200081288814545, -0.3841978907585144, 0.1452781856060028, 0.021285444498062134, -0.01932429149746895], [-0.3889581859111786, -0.12033437192440033, 0.5887978076934814, 0.1478370726108551, -0.25804075598716736, 0.2274865210056305, -0.029100794345140457, -0.47339576482772827, 0.20833447575569153, 0.04285532608628273, -0.06995195150375366, 0.038337431848049164, -0.20511892437934875, -0.22542601823806763, -0.4973399341106415, 0.11585349589586258, -0.03274194896221161, 0.11313922703266144, 0.45256760716438293, 0.28596413135528564, -0.44175997376441956, 0.2891780436038971, 0.4245711863040924, -0.2646609842777252, -0.14699992537498474, -0.028014197945594788, -0.3241628408432007, -0.4301217496395111, 0.07863850891590118, -0.2885592579841614, 0.243047297000885, -0.21995894610881805, -0.28746795654296875, -0.13402797281742096, -0.08560203015804291, -0.19631309807300568, 0.1278952658176422, 0.5327242016792297, 0.18863655626773834, 0.16033080220222473, 0.3942717909812927, -0.011892170645296574, -0.06642409414052963, 0.1831791251897812, -0.37268081307411194, -0.16314266622066498, 0.07264009118080139, 0.40124547481536865], [-0.0973709374666214, -0.18441370129585266, 0.47405779361724854, 0.32948872447013855, 0.18328629434108734, -0.1605316698551178, -0.2562618553638458, -0.4380705952644348, 0.1815476417541504, -0.052981458604335785, 0.36680012941360474, -0.3141878843307495, 0.15816371142864227, 0.1654830127954483, -0.15078574419021606, 0.006616583094000816, -0.20421092212200165, -0.026461707428097725, 0.3645671010017395, 0.2254873514175415, -0.35528814792633057, -0.16167859733104706, 0.08091455698013306, -0.763805091381073, -0.14660760760307312, 0.498318076133728, 0.18752217292785645, 0.04569479450583458, 0.37618163228034973, -0.1560981720685959, 0.14463388919830322, -0.3045295178890228, -0.35276880860328674, 0.2911251485347748, -0.36811235547065735, -0.06932298839092255, 0.12732741236686707, -0.03323173150420189, 0.5587217211723328, -0.1157766729593277, 0.06374653428792953, 0.4206835925579071, -0.09657429903745651, -0.45004141330718994, -0.06974674761295319, 0.347552090883255, -0.20928744971752167, -0.42628586292266846], [-0.6456787586212158, 0.47675108909606934, 0.17586158215999603, -0.5382559299468994, 0.5129010677337646, 0.2208963930606842, -0.1583014279603958, -0.29906949400901794, 0.2258332073688507, 0.299358069896698, -0.2602112591266632, 0.6322177648544312, 0.06453609466552734, 0.28490573167800903, -0.05990267172455788, -0.21604092419147491, -0.006391208153218031, 0.05259975418448448, -0.08726675063371658, -0.16429468989372253, 0.1561383605003357, 0.04752971604466438, -0.1918516755104065, 0.06932142376899719, -0.2936563193798065, 0.33733198046684265, -0.23995596170425415, 0.1974208950996399, 0.09259033203125, 0.13489468395709991, 0.07000906765460968, -0.07980530709028244, 0.12230151891708374, -0.1800699532032013, -0.3235287368297577, 0.2999419867992401, -0.2871607840061188, -0.040377676486968994, -0.050450216978788376, 0.18525554239749908, 0.10194836556911469, -0.2929438352584839, 0.4355422854423523, 0.14501656591892242, -0.09118113666772842, 0.014971607364714146, 0.10953879356384277, -0.3888797461986542], [-0.04112518951296806, 0.25311410427093506, 0.21791334450244904, 0.13874253630638123, -0.2291969209909439, 0.013649282045662403, 0.2548958957195282, 0.3344491422176361, 0.5021493434906006, -0.2542254328727722, 0.09139477461576462, 0.17353639006614685, 0.11865845322608948, 0.3175680637359619, 0.2327343374490738, 0.14866551756858826, -0.2322993278503418, -0.23799562454223633, 0.004012022167444229, 0.1617598831653595, 0.4792787730693817, 0.25221991539001465, 0.3138285279273987, -0.2725408673286438, 0.06478767096996307, 0.3573898673057556, -0.40762659907341003, -0.028317216783761978, 0.010840005241334438, -0.4482135772705078, -0.40984800457954407, 0.2576398253440857, 0.3251497447490692, 0.2987954616546631, -0.17929291725158691, -0.33711013197898865, 0.31463152170181274, 0.06517211347818375, -0.1655239313840866, -0.09813495725393295, -0.24904219806194305, -0.5111340880393982, 0.1561124473810196, 0.11026998609304428, 0.4955800473690033, 0.3496822714805603, -0.3667338788509369, 0.07527656853199005], [-0.8245648741722107, 0.1460430920124054, -0.38759174942970276, -0.16620299220085144, 0.0315411351621151, -0.4464724659919739, -0.08822836726903915, -0.20558910071849823, -0.26959916949272156, 0.15264053642749786, 0.30294910073280334, 0.42392194271087646, 0.0343160554766655, -0.2542811930179596, 0.29420527815818787, 0.009119047783315182, 0.008494587615132332, -0.1595076322555542, -0.4058455228805542, 0.24143627285957336, 0.5964593291282654, 0.5253535509109497, 0.5492337942123413, -0.3845628798007965, -0.2527396082878113, -0.4760938882827759, -0.006229161284863949, 0.3207690119743347, 0.05800852179527283, -0.28040483593940735, -0.16158154606819153, -0.15937545895576477, 0.3776452839374542, 0.05004695802927017, -0.34446045756340027, 0.16944587230682373, -0.49887433648109436, 0.25523582100868225, 0.11797717213630676, 0.4097149670124054, 0.18948806822299957, 0.1436891108751297, -0.3751441538333893, -0.19566603004932404, 0.3050156831741333, 0.5783988833427429, -0.24146218597888947, 0.4899634122848511], [-0.46007123589515686, -0.13766337931156158, -0.022037740796804428, -0.11037052422761917, 0.06202800199389458, 0.4132700562477112, -0.12488934397697449, 0.14144939184188843, -0.2117081582546234, 0.16102369129657745, 0.5743727087974548, -0.3798976242542267, 0.18878726661205292, 0.18348054587841034, 0.20447896420955658, -0.34440287947654724, -0.03785959258675575, 0.24708935618400574, 0.13746359944343567, -0.0800844132900238, 0.15128019452095032, 0.5879582762718201, 0.1806281954050064, -0.11281193047761917, 0.1283891201019287, -0.4358203113079071, -0.07082710415124893, 0.15329568088054657, 0.26557987928390503, -0.6261162161827087, 0.0694635808467865, -0.211614727973938, -0.01798173226416111, -0.10044434666633606, -0.23625114560127258, 0.323327898979187, 0.37916100025177, 0.0710342600941658, -0.08182164281606674, -0.006718751043081284, 0.09126023948192596, 0.14735130965709686, 0.2027154564857483, -0.15365789830684662, -0.09373193234205246, -0.01570439711213112, 0.2192113697528839, 0.08150030672550201], [-0.488859623670578, -0.34888961911201477, -0.34912940859794617, -0.19713194668293, -0.054518651217222214, -0.41145557165145874, -0.14920611679553986, 0.2952095568180084, -0.0905224159359932, -0.40440186858177185, -0.267156720161438, -0.36329782009124756, -0.191355898976326, -0.055967122316360474, -0.3775138854980469, 0.02994653582572937, 0.43788254261016846, 0.05191069841384888, 0.2973087728023529, -0.25840073823928833, -0.15711712837219238, 0.0656960979104042, -0.3312004804611206, 0.09533554315567017, -0.20249982178211212, -0.6517504453659058, -0.507428765296936, 0.08483064919710159, -0.025265350937843323, 0.047127656638622284, 0.07732121646404266, 0.44160470366477966, 0.268897145986557, 0.07096194475889206, -0.09537578374147415, -0.09024111926555634, -0.30847299098968506, -0.049227431416511536, -0.08811444789171219, -0.013763980008661747, -0.2778278887271881, -0.13895690441131592, 0.05905568599700928, 0.08049508184194565, 0.3432883322238922, -0.15540604293346405, -0.1995355486869812, 0.22811855375766754], [0.12782332301139832, -0.2507506012916565, -0.04821064695715904, 0.0872693732380867, 0.18790514767169952, 0.230775386095047, -0.15146824717521667, 0.6111463904380798, -0.6798906326293945, 0.30988314747810364, -0.21610486507415771, 0.2589579224586487, 0.3769393861293793, -0.07808095216751099, 0.32138848304748535, -0.7731327414512634, 0.03927081823348999, 0.3275161385536194, -0.6521382927894592, -0.073122039437294, 0.40204674005508423, -0.1747703105211258, 0.12868355214595795, 0.041979026049375534, 0.026044433936476707, -0.7391575574874878, -0.291578471660614, -0.4204868972301483, -0.00017518702952656895, -0.09165177494287491, -0.1078202873468399, -0.6272076368331909, -0.28999999165534973, 0.21178866922855377, -0.19416546821594238, 0.3603825271129608, 0.0022724620066583157, 0.4109693765640259, -0.22426347434520721, -0.10207108408212662, -0.32121431827545166, -0.07077343761920929, -0.41168150305747986, 0.4230293333530426, -0.4652140438556671, 0.5478598475456238, 0.12042146176099777, 0.10948201268911362], [-0.06476324796676636, -0.27767133712768555, -0.5336792469024658, 0.31115877628326416, -0.09596841782331467, -0.15797972679138184, 0.08341848850250244, -0.14364093542099, -0.3196382224559784, -0.1248357817530632, -0.03710363432765007, 0.14293578267097473, 0.024815453216433525, 0.0122178103774786, 0.38177192211151123, 0.3385472595691681, 0.13501286506652832, -0.018710171803832054, -9.165627852780744e-05, -0.17726066708564758, 0.1817958950996399, 0.2005079984664917, 0.3471420109272003, 0.2959555983543396, 0.4781995117664337, -0.07101838290691376, 0.002883330686017871, 0.03456687182188034, 0.1411539763212204, 0.21151843667030334, 0.05616113543510437, -0.3067382872104645, -0.2814484238624573, -0.06390953809022903, -0.03190300986170769, -0.09408914297819138, 0.5929827690124512, 0.2110467106103897, -0.275831013917923, -0.29810830950737, 0.33792299032211304, 0.00572883291170001, 0.12447906285524368, 0.14674510061740875, -0.0947946086525917, 0.18897667527198792, -0.10224631428718567, -0.16300123929977417], [-0.35540086030960083, 0.09684309363365173, 0.401911199092865, 0.34170055389404297, 0.22813205420970917, -0.050854574888944626, -0.10429476201534271, 0.4010007977485657, -0.11628999561071396, 0.27321815490722656, 0.23370347917079926, 0.13521160185337067, -0.06199086084961891, 0.23265647888183594, 0.08206284791231155, -0.1719392091035843, 0.18073752522468567, -0.5520110130310059, 0.38788214325904846, 0.11071062088012695, 0.09981188178062439, -0.3253859281539917, 0.07889954745769501, 0.22642052173614502, 0.19020958244800568, 0.005035543814301491, -0.35778912901878357, -0.052167557179927826, -0.5575783848762512, -0.2182845026254654, 0.4220331609249115, -0.5212927460670471, 0.1925061047077179, -0.03419681638479233, -0.040520936250686646, 0.20274260640144348, -0.3651200830936432, 0.3696397840976715, 0.17831584811210632, 0.37633323669433594, 0.18735076487064362, -0.36027398705482483, -0.31885069608688354, 0.4932332932949066, 0.3811027705669403, 0.39906612038612366, 0.26990193128585815, -0.2702494263648987], [0.21072588860988617, 0.2877490818500519, -0.24503783881664276, -0.0911652147769928, 0.3010263442993164, 0.1475580483675003, 0.1587642878293991, 0.44769585132598877, 0.006642876658588648, 0.5780466794967651, -0.15715181827545166, -0.12997402250766754, -0.1082233414053917, 0.09010482579469681, 0.0233092550188303, -0.29106757044792175, -0.005382532719522715, 0.22651170194149017, 0.40877145528793335, -0.37313249707221985, -0.17701587080955505, 0.0332455150783062, -0.364497572183609, 0.18242083489894867, 0.0016786259366199374, -0.020358078181743622, 0.19334666430950165, -0.39044931530952454, -0.14111442863941193, -0.37181562185287476, 0.6102797389030457, 0.05609139800071716, -0.18943999707698822, -0.5092410445213318, 0.5136414170265198, -0.28740784525871277, 0.13571470975875854, -0.6210816502571106, 0.20521856844425201, -0.3796733021736145, -0.11810867488384247, -0.18305927515029907, 0.31416022777557373, -0.3089517056941986, -0.029855182394385338, 0.08914212882518768, 0.0982607826590538, -0.2663263976573944], [0.09338659048080444, 0.2522569000720978, -0.12505270540714264, -0.12961113452911377, 0.4327314496040344, 0.8691362738609314, 0.21542277932167053, -0.2172100841999054, 0.23332786560058594, 0.017684483900666237, 0.49500659108161926, 0.40127477049827576, -0.08259835094213486, -0.24309757351875305, 0.03201635554432869, -0.5035738945007324, 0.3593534827232361, 0.351899653673172, -0.3827223479747772, -0.19210898876190186, 0.13689319789409637, -0.4906177818775177, -0.5578454732894897, -0.2086677998304367, 0.45459210872650146, 0.3293147087097168, -0.01730884611606598, -0.09219963103532791, -0.4386293590068817, 0.04771285131573677, 0.09767069667577744, -0.20595452189445496, -0.03989608585834503, 0.5092426538467407, -0.02581004425883293, -0.38068193197250366, -0.023111771792173386, 0.00724832434207201, 0.09275701642036438, 0.139811173081398, 0.09541664272546768, 0.3353949189186096, -0.023566754534840584, 0.6696802973747253, 0.1206313893198967, -0.4775959253311157, -0.07529386132955551, -0.32678675651550293], [0.06774178892374039, 0.07616779953241348, -0.407676637172699, -0.07109443843364716, -0.3847712576389313, 0.23755934834480286, 0.1029532179236412, 0.5444389581680298, 0.20895643532276154, -0.16001984477043152, 0.2462015151977539, 0.019369259476661682, 0.2822987735271454, -0.3214240074157715, -0.3004215955734253, -0.10464750230312347, -0.25706610083580017, -0.19513487815856934, -0.017495334148406982, 0.3077126145362854, -0.23219172656536102, 0.19239944219589233, 0.24572648108005524, 0.380109578371048, -0.23450367152690887, 0.040973011404275894, 0.33629271388053894, -0.1913941502571106, -0.1295105367898941, 0.33553260564804077, -0.3531248867511749, 0.36194664239883423, 0.3639352321624756, -0.02221900410950184, 0.0051817079074680805, 0.005378318019211292, -0.14298462867736816, -0.004112092312425375, -0.21376843750476837, -0.05762552469968796, -0.15993990004062653, 0.14410679042339325, 0.3193754255771637, 0.11449124664068222, 0.05200435593724251, -0.028883641585707664, 0.23715347051620483, -0.3034769594669342], [-0.07826751470565796, 0.4278022348880768, 0.23028779029846191, -0.010148772038519382, 0.21367573738098145, -0.02581637166440487, -0.7737900018692017, -0.043050456792116165, -0.19943079352378845, -0.3379168212413788, 0.037313006818294525, 0.8470938205718994, -0.2554548382759094, -0.10851108282804489, 0.04904216527938843, -0.13907018303871155, 0.11369025707244873, -0.4814739227294922, 0.043996311724185944, -0.12572583556175232, -0.0627855584025383, -0.6510929465293884, 0.540095865726471, -0.3604903519153595, -0.4244581460952759, -0.029520099982619286, 0.09474996477365494, 0.08786074072122574, -0.23617294430732727, 0.1431094855070114, 0.004916227888315916, -0.1493605077266693, -0.5268842577934265, -0.38708263635635376, -0.4117650091648102, 0.03636099398136139, 0.2808496952056885, -0.2482374906539917, 0.6515063643455505, -0.30009183287620544, -0.13304020464420319, -0.06928292661905289, 0.08441898226737976, 0.10542809963226318, 0.13806085288524628, 0.02425609901547432, -0.022974660620093346, 0.6319805383682251], [0.15762589871883392, 0.10129594057798386, -0.05109620839357376, 0.18998368084430695, -0.1639777272939682, -0.07797428220510483, -0.10856647789478302, 0.6145185828208923, 0.2603359520435333, -0.011988036334514618, -0.13567787408828735, 0.1913500428199768, -0.033145856112241745, 0.0005911789485253394, -0.12736284732818604, 0.08254875987768173, 0.10122024267911911, -0.199490487575531, 0.006142034195363522, 0.1405659317970276, 0.07530185580253601, -0.10415086895227432, 0.5121975541114807, -0.05003814771771431, -0.03483438119292259, -0.12247760593891144, 0.19157759845256805, -0.0647178590297699, -0.1134614422917366, -0.3410348892211914, -0.2227391004562378, -0.1711399406194687, 0.1893882304430008, -0.7273610234260559, 0.4691862463951111, -0.2718483805656433, -0.04561072215437889, 0.20922943949699402, 0.37023818492889404, 0.4018806219100952, 0.049421846866607666, -0.014673381112515926, 0.33585023880004883, -0.36955466866493225, -0.17834579944610596, -0.4010477066040039, -0.130214661359787, -0.4162052869796753], [0.09653081744909286, 0.08215589076280594, 0.332709938287735, 0.0714685395359993, 0.0314042754471302, 0.24219635128974915, 0.46153905987739563, -0.3357398211956024, 0.18201309442520142, -0.05278820917010307, -0.06917976588010788, -0.16291646659374237, -0.18432477116584778, 0.1545230597257614, 0.31734099984169006, 0.16693902015686035, -0.059696879237890244, -0.17638804018497467, -0.16316963732242584, 0.5311824679374695, 0.3301994800567627, 0.26415032148361206, -0.23599113523960114, 0.03996817767620087, 0.2303590625524521, 0.34126847982406616, 0.26873013377189636, -0.09510967135429382, -0.3573237657546997, -0.3153466582298279, -0.016126511618494987, -0.6268381476402283, 0.027952658012509346, 0.051102135330438614, 0.4253123104572296, 0.16475269198417664, 0.08296068757772446, -0.6296907663345337, 0.13317720592021942, 0.18751786649227142, -0.2523038685321808, -0.10632607340812683, -0.34710410237312317, 0.09367053210735321, 0.15067516267299652, -0.09903629124164581, -0.4114229083061218, -0.059140514582395554]]}, "Dense_2": {"bias": 